[[-7.532496062620248e-07, 1.9275167493938753e-05, -0.000122647421790846, -1.3757898984302994e-05, -6.8035442156320375e-06, -0.00032122131177689944, 5.961852058464701e-06, -0.040964602867917844, 6.890365328409121e-05, -1.6922727430684701e-06], [-1.7998288394256026, -0.006769819166042872, -0.00018980524754748254, -1.7877735008994886, -1.4277441096284216e-09, -0.0015447169535095931, -7.404833008288026e-07, 0.03389711311227329, 0.1724230239245974, -0.0007119500841516131], [-0.0022830472288127845, -3.71518969864966e-07, 3.650972196359772e-05, 0.00013555731131444557, -1.4763682139862642e-05, 4.908051337883646, 3.24669728941832e-05, -0.004088724561276934, -0.0005238258990998921, 2.594158299049628e-06], [-0.0018306544583226421, -0.0025511630100907164, 0.00026259317735839125, -0.0002666926582674945, 4.756274503054103e-05, -0.0004540258606177841, -10.411660486916361, 0.16498178347052483, 3.27544344972291e-05, -0.014463891080972449], [-0.00041110257206265646, 1.1131032133377818e-05, -0.02562287781654742, -2.5018682747740485e-05, -0.013833044583187489, -0.0002676194374824938, 5.861540828950522e-06, 0.0030237703227379404, -0.004140663765954415, 6.527755010144272e-09], [0.0006440445067603113, -0.00010189652358124946, 0.02134337815959457, 0.0021458676458668818, -6.569850096323608e-05, -0.1130634679552903, -4.135797688206657e-07, -5.164597641064105e-07, 0.18521119359513175, -0.004415440733175756]]@[[1.4971859017282322e-06, 2.6349082737001726e-07, -0.004573048508690369, -7.439810301837568e-08, 0.0007257783078963915, 4.249660499215813e-05, 0.0005865648992376392], [2.9845925309127356e-06, -0.013777436498136742, -0.007575299385386248, 5.187232888567357e-05, -0.009780836800598379, -0.0005060771439847621, 0.008782991473947736], [4.8073381262088005e-06, -0.0008102158984908426, 0.0001823243982713698, -4.590795715703545e-07, -0.0003145316531414932, 0.007664149774144059, 0.00020281964769172376], [-15.314169578555127, -1.0015019145374906, -3.6384317414997554e-06, 0.050551489093956604, -0.002002865694366549, -6.862839887676428e-05, 2.355496487702275e-05], [0.00037409802453933867, -4.094364078550137e-07, 0.08432648152939339, 0.027875560340579485, -8.731189804012709e-05, -7.235589172755167e-05, -0.0006177798355149432], [0.0990094807053357, -5.2129345240950244e-05, 0.023220399879403712, -0.00018123834834003145, -0.06162946991644152, 3.8236786290328947e-05, -0.0022174470060834063], [232.7358171656484, -0.0012123099982965491, -0.000287024312012151, 3.1982841108106016e-05, -2.1402393629607248e-05, -1.316387294237241e-05, 0.00028206321515603767], [-5.139658985668913e-10, 0.0024438572911767336, 7.158769208728267e-07, -2.8867508166464575e-07, 9.732637395988604e-06, 0.0062008119536394795, 0.0002643208868719686], [2.370351071855292e-06, -0.0007154702576364451, 0.06900750414771067, 0.00015610800763906832, 7.688762006669174e-06, -0.0008942186288643505, -0.00017508067090603495], [-6.755438294741701, 2.279146482107579e-06, 0.0032156605045775507, 0.03694087412375244, 0.0036288041502839648, 0.00022102341351411823, -2.603449026105639e-07], [0.010020939656410273, 0.39256249254289644, 0.058424100477719954, -0.27405457736785577, -0.010999577021803687, -4.21337661244602e-06, 4.994137584321292e-06]]@[[0.0018926469367327916, 18.616523327242962], [0.009000772192331865, -0.1915375528338899], [5.004290531250054, 0.0002859214438611235], [-0.0006561565783357596, -1.9609170322038025], [2.4515599031406516, 3.0624916999028095e-09], [-0.01340949610923117, 0.00013983754649284959], [-0.00015097639318510387, 2.5750647756186427e-08], [0.002388811272969492, -0.00035597927498508334]]
[[-8.176025042964281e-07, 1.9275167493938753e-05, -0.00019458930892226904, -1.3757898984302994e-05, -7.513946121094259e-06, -0.00032122131177689944, 1.3450562274839004e-06, -0.040964602867917844, 6.890365328409121e-05, -2.1451002859935536e-06], [-1.7998288394256026, -0.006769819166042872, -0.00018980524754748254, -1.5826330906127233, -1.4277441096284216e-09, -0.001628090757770192, -7.404833008288026e-07, 0.03389711311227329, 0.1724230239245974, -0.0007119500841516131], [-0.002207015891419717, -3.71518969864966e-07, 5.4834628413706485e-05, 8.244440522812322e-05, -1.4763682139862642e-05, 4.908051337883646, 6.348999511470452e-05, -4.835872182071897e-06, -0.0005238258990998921, 1.475386479896193e-06], [-0.0031810953275364768, -0.0020779134197422, 0.00026259317735839125, -0.00021153186603026626, 3.9653466701894254e-05, -0.0004540258606177841, -10.411660486916361, 0.16498178347052483, 3.27544344972291e-05, -0.014463891080972449], [-0.00041110257206265646, 1.1131032133377818e-05, -0.02562287781654742, -2.5018682747740485e-05, -0.013833044583187489, -0.00030486677009864316, 9.115667661033546e-06, 0.0030237703227379404, -0.004140663765954415, 6.527755010144272e-09], [0.00023429397431960186, -7.750531198038582e-05, 0.013743302440032315, 0.0021458676458668818, -4.223316587480526e-06, -0.1130634679552903, -4.135797688206657e-07, -4.034667545831558e-07, 0.18521119359513175, -0.004415440733175756]]@[[2.1817037364752437e-06, 2.6349082737001726e-07, -0.004005103982801111, -9.571556570581538e-08, 0.0007257783078963915, 4.249660499215813e-05, 0.0005865648992376392], [2.9845925309127356e-06, -0.013777436498136742, -0.010830553287536173, 5.8713523931964205e-05, -0.009780836800598379, -0.0005060771439847621, 0.008782991473947736], [6.08164960965047e-06, -0.0008102158984908426, 0.0001823243982713698, -5.272536928038441e-07, -0.0003145316531414932, 0.0028776470064046135, 0.00022329497839932967], [-15.314169578555127, -1.0015019145374906, -8.46913570764159e-06, 0.050551489093956604, -0.002002865694366549, -9.587880156256935e-05, 2.355496487702275e-05], [0.00037409802453933867, -4.094364078550137e-07, 0.09663791893946198, 0.027875560340579485, -8.731189804012709e-05, -9.795768217105745e-05, -0.0005526865490245111], [0.17421538368294096, -5.2129345240950244e-05, 0.023220399879403712, -0.00018123834834003145, -0.011235870555984039, 3.8236786290328947e-05, -0.0022174470060834063], [232.7358171656484, -0.00015676230977849245, -6.212716729329773e-05, 3.1982841108106016e-05, -2.1402393629607248e-05, -8.799734934408942e-06, 0.00017579230147158093], [-5.139658985668913e-10, 0.0024438572911767336, 8.31206938656379e-07, -2.8867508166464575e-07, 9.732637395988604e-06, 0.0062008119536394795, 0.0002643208868719686], [2.370351071855292e-06, -0.0007154702576364451, 0.09599948179499125, 0.000101638336252189, 7.688762006669174e-06, -0.0013149820213696698, -0.00018007933281030837], [-8.083123340932428, 2.279146482107579e-06, 0.005716371425445515, 0.011585911489284251, 0.0036288041502839648, 0.00022102341351411823, -3.215296129119812e-07], [0.010020939656410273, 0.34299735357352795, 0.058424100477719954, -0.27405457736785577, -0.010999577021803687, -2.150412098466921e-06, 4.994137584321292e-06]]@[[0.002107616402981086, 18.616523327242962], [0.009000772192331865, -0.1915375528338899], [5.004290531250054, 0.00040651685755893835], [-0.0006561565783357596, -1.9609170322038025], [2.4515599031406516, 3.0624916999028095e-09], [-0.01340949610923117, 0.00013983754649284959], [-0.0001407180965981156, 2.5750647756186427e-08], [0.002388811272969492, -0.00035597927498508334]]