[[-7.305403920337043e-07, 3.719397655602285e-06, -3.645255534949486e-05, -2.7761841717927665e-05, -5.264328411488348e-07, 1.4346395115484259e-05, 5.078076098448424e-05, -0.023968977798358895, 2.8511040706858625e-05, -1.7592996507162507e-06], [-2.078597170922836, -0.0001914664591467736, -8.31084418586958e-05, -1.6131776754529839, -4.4630058994381494e-10, -0.004501085383560624, -3.112284310848145e-07, 0.02573632045440047, 0.0013281826657565545, -9.915740756979909e-05], [-0.0021004952583291176, -4.9275717990307806e-08, 0.00011459689672164946, 9.107218562744641e-07, -5.826465764253072e-07, 1.4672179166986177, -4.0320857870205266e-05, -0.0021137598324020043, -0.00042027301132222216, 3.664225914460092e-06], [-0.0018340945099718246, -1.937558259277367e-05, 3.5234029705149305e-05, -8.349124610974625e-05, 4.868336888561241e-05, -0.0004933848711025903, -4.940496671668977, -0.0005301836980060501, 5.064742450771303e-06, -0.002006426159059045], [-1.5489152152105944e-05, 5.229542026374447e-07, -0.007423316276376223, -1.9855937826285843e-05, -0.00799746479907065, -0.0001539402046140382, -6.892302902952557e-08, 0.00021614656573221716, -0.0073987779957666215, 1.047561137487743e-09], [5.289061925685002e-05, -2.0056380191402343e-05, 0.00524314158288335, 0.0006168953505296532, -9.153932962076991e-05, -0.1413490621771242, -2.8038844777987887e-08, -9.641757377466977e-08, 0.09780514857755898, -0.002203876447111187]]@[[3.3068925215273355e-06, 8.925781305112262e-08, -0.0036356460652608347, -2.6799022222726332e-08, -5.50065282338741e-09, 5.089162257718859e-06, 0.0001256890165157463], [2.2315278845958374e-06, -0.03583641202014896, -0.0035204620821889378, 8.887922900004468e-05, -0.009121259771596314, -0.0005633930256797545, 0.0014697853140248226], [6.18556647082337e-07, -4.896235028960359e-05, 6.224322511223489e-05, -2.965292047393417e-07, -0.0007723220741605505, 0.0018636559289343505, 1.174954674378442e-05], [-9.137747710268377, -0.1219131766575034, -3.082884862964208e-06, 0.12877106852390213, -0.0012563286811216978, -1.683789196066055e-05, 5.868062609674413e-06], [0.00016181588709682546, -3.47253138099448e-08, 0.061475902743661805, 0.026838701016963402, -6.542603353745665e-05, -6.646288503313226e-05, -8.000412029134422e-06], [0.751839746500034, -2.155022297920358e-05, 0.12788782204145888, -0.0001581609149188042, -0.00626777611090664, 2.0027195731933264e-06, -9.543396007195346e-05], [30.561479666135657, -0.0007248012093202208, -3.70004145470832e-05, 1.9495308767627713e-05, -3.920411703170053e-07, -5.872017204268444e-06, 0.00028700567651402395], [-1.0911788763212194e-09, 0.0012243918958962858, 8.091530592142098e-08, -9.39968300313234e-08, 2.533575208910314e-06, 0.001711080187002865, 0.00023928264045033443], [-2.0190661796091638e-08, -0.00023873544735796847, 0.05892876512389803, -7.551085588367064e-06, 5.774980927201197e-06, 0.0003110344141440798, -0.00022994536420079415], [-3.144148733256684, 9.054745559733678e-07, 0.0071120619283869205, 0.0064122121352018155, 0.008419154195852926, 2.9181551474762707e-05, -1.0874319629498496e-07], [0.002957872421401398, -0.0007599696116674646, 0.01022527617900863, -0.390717013487211, -0.005750953007384776, -9.534450346502203e-06, 1.6417228301500476e-06]]@[[0.006479016242025249, 5.141114623672851], [0.004111017363760442, -0.08597166068201437], [1.6021717805881333, -8.249723837114897e-06], [-0.0008732852818853951, -7.677392418166329], [0.146724570582289, 6.720887915421646e-10], [-0.02508309691145056, 0.00012851102053777029], [-6.246991125450326e-06, 1.3121353160129215e-08], [0.0023948255913847872, -2.603599843281457e-05]]
[[-7.305403920337043e-07, 3.719397655602285e-06, -3.022984116996952e-05, -2.7761841717927665e-05, -5.264328411488348e-07, 1.4346395115484259e-05, 5.078076098448424e-05, -0.023968977798358895, 3.245001182481141e-05, -1.7592996507162507e-06], [-1.3750513004158813, -0.0001914664591467736, -0.00012944603715412068, -2.271470704844424, -3.5514029598946347e-10, -0.004501085383560624, -4.5541779329809945e-07, 0.02573632045440047, 0.0013281826657565545, -9.915740756979909e-05], [-0.0021004952583291176, -5.1456319683612254e-08, 0.00011459689672164946, 8.966223863730406e-07, -5.263113367714974e-07, 1.0231331675089663, -4.0320857870205266e-05, -0.0021137598324020043, -0.00045938593828724123, 3.664225914460092e-06], [-0.0012308202675117162, -1.937558259277367e-05, 7.271389923116432e-05, -8.66122310829799e-05, 4.868336888561241e-05, -0.0004933848711025903, -3.8885372148906736, -0.0005301836980060501, 5.064742450771303e-06, -0.0015412030993676238], [-2.393388444779482e-05, 5.433737123298347e-07, -0.007423316276376223, -2.419304289212712e-05, -0.010168585727052945, -0.0001539402046140382, -6.892302902952557e-08, 0.00021614656573221716, -0.009267028005466244, 4.0817550653141547e-10], [9.957704678349403e-05, -2.5482480537139923e-05, 0.00524314158288335, 0.0008612682409793602, -4.632633238824177e-06, -0.11230551382400614, -2.995959780103484e-08, -2.1271416684528676e-07, 0.17433859178327998, -0.002203876447111187]]@[[3.3068925215273355e-06, 6.370810169198309e-08, -0.0036356460652608347, -2.6799022222726332e-08, -3.0848541279894904e-10, 5.089162257718859e-06, 0.0001256890165157463], [2.2315278845958374e-06, -0.03583641202014896, -0.0016421662836708284, 8.887922900004468e-05, -0.009121259771596314, -0.00036208655513667937, 0.0014697853140248226], [6.18556647082337e-07, -4.896235028960359e-05, 6.224322511223489e-05, -2.845809519321217e-07, -0.0007723220741605505, 0.0011986634262613801, 1.174954674378442e-05], [-14.265182593648523, -0.1219131766575034, -3.082884862964208e-06, 0.12877106852390213, -0.0006044636849651136, -1.683789196066055e-05, 5.868062609674413e-06], [0.00016181588709682546, -2.1482874100157015e-08, 0.061475902743661805, 0.026838701016963402, -6.542603353745665e-05, -9.521511989343948e-05, -1.1232197190884581e-05], [0.4490245276370471, -2.155022297920358e-05, 0.12788782204145888, -0.0001581609149188042, -0.00626777611090664, 2.237928893676672e-06, -7.490037756046032e-05], [30.561479666135657, -0.0003968106819224483, -3.70004145470832e-05, 1.699853438559277e-05, -1.1113930903534648e-07, -5.872017204268444e-06, 0.00028700567651402395], [-1.0911788763212194e-09, 0.0014708243985075923, 8.091530592142098e-08, -5.3684738682128334e-08, 2.533575208910314e-06, 0.001711080187002865, 0.00023928264045033443], [-2.0190661796091638e-08, -0.0004592012269474882, 0.05892876512389803, -7.551085588367064e-06, 5.774980927201197e-06, 0.0003110344141440798, -0.00022994536420079415], [-3.144148733256684, 1.350798742885561e-06, 0.01336746158361379, 0.0027144785093741438, 0.008419154195852926, 2.9181551474762707e-05, -1.0874319629498496e-07], [0.0049715982775556415, -0.0014573060006605057, 0.005758548338869041, -0.43869790926892666, -0.005750953007384776, -6.165261748367333e-06, 1.7709295555426485e-06]]@[[0.007171270120062374, 5.141114623672851], [0.004370992709546793, -0.08597166068201437], [1.6021717805881333, -8.249723837114897e-06], [-0.0008732852818853951, -7.345167282979445], [0.146724570582289, 5.755964165609418e-10], [-0.02508309691145056, 0.00012851102053777029], [-6.246991125450326e-06, 1.3121353160129215e-08], [0.0023948255913847872, -2.603599843281457e-05]]