[[-1.0676797548776629, 0.8522540845071094, -2.053541782674608, -2.06499083068822, 1.9500777579081148, 0.43335347777548766, -0.24396560470300108, -0.37544210326320576, -1.3393461145155034, -2.1466726937682306, -0.027260880156229475, -1.7418984748511988, -0.3952488228764262, -0.7211576854903653, 0.39325622236870983, -1.0577263627863973, 1.3989825381302206, -0.6027782025340156, 0.47348989781444656, 0.967226287614103, 2.3650648083801236, -0.29761760959033273, 1.092568398188238, 0.5618702048235348, -1.2333225525002196, -0.20400637837775581, -0.9270344642303499, -0.11178960202193962, 0.03825359981367302, 0.6248374004315898, -1.442580685090106, -0.9306583071138799], [-0.04900197419113107, -0.8164999980873527, -0.33278141503004927, 0.47957121128333124, 1.241040463517055, 0.42892741637483783, 0.8954024517965213, -0.04919449160312406, -0.7428663322532393, 1.3751633297105235, 0.1443195430499078, 0.4004614181465175, -0.4972666690764491, 2.0414696237082652, -0.7191968540425256, 0.013747489189477713, 1.7394358877282161, 1.44133581103418, 1.2936546227512757, 0.423574593135276, 0.08625809160150011, -1.2404268806641234, -1.7388572856291433, 1.1105248395800154, -1.9031472477456655, 4.446182481091485, -1.6402575391334144, -0.9426639023369441, -2.2846078756726453, -1.0489773531599709, 1.7954575325062234, -0.9624666200620435], [1.399157481640698, 1.5898781137941924, 1.3126739035960322, 0.2683099653628044, -0.6462319138837646, -0.6414501876639314, 1.333182958100279, 0.04899438595791647, 3.4334855962489237, -0.3963032123653985, -1.3685711702375, 1.799490261403354, -1.8488269418888217, 0.3597449880205243, -2.605872100092301, -0.036746165943332576, 0.29897305244575006, 1.7647832459907027, -0.9292177358917721, 1.1774055101863259, 0.4422149770768838, -1.4496268153879646, -1.2660510376742296, 0.584951333601385, 1.0717702080672582, -1.7876365203792421, 0.9847411348831759, 2.521075025659979, 1.0369460021451677, -0.32634095439856486, 1.3549095963594737, 0.34841463271125905], [0.7647641305043923, -0.15031763960240047, -0.9614794788110396, 0.27438532714832986, 1.571157160774856, -1.0622576870841227, -1.2343380060627855, -0.8916052164979542, -1.117095264132497, 0.40274855344442323, 0.3655978150943153, 1.1647875839029131, -1.1085934505416628, -0.827553714186559, -2.065217550271453, 0.5193358221922723, 1.0108452385048325, -0.5725564209966356, -0.20969098357244592, -0.32079956189360326, 0.6776665125586322, 0.8977562481626896, -1.9183310061986942, -2.7122316842957668, 1.0717510624951787, 1.58213737381636, -1.7044751959837683, 0.5946611523516458, 1.2569791334445841, 1.0164104588943577, 1.3017758197492888, 0.5701664802820611], [-0.5085971137621796, 1.135148140385181, -1.4306226963440474, 1.7510068437777067, -0.49883819782761235, 0.7588375643466204, -0.9908468350339136, 0.337915771484619, 0.9204372452305312, -1.2035245778054067, -2.830844626327721, 0.5405479120440284, 1.2864902955598752, 1.5573003292598353, 2.335954178049619, 0.10796805267577719, -0.9328331002663898, -1.7669903695149711, -1.6279199823370523, -0.3843250147191446, 0.9827500977513894, 2.3551499103801747, 0.7310401362617727, -0.4292565151979968, 1.912707219647967, 0.4904233106540868, 1.2145990267784035, 0.5903535778442768, -1.5201689345869498, -1.963203941702119, -1.619184119707115, -0.30692998338209193], [-0.07694388275095077, -0.16020369292030678, 1.3558907020477098, -1.496609719177452, -0.8243770542870299, -0.23922054549614266, -1.4741889423210357, 1.9401587400676095, -1.2697524904505406, 0.21741185102580518, 0.7432210848297653, 1.750946740865128, 0.19960497559000442, -0.8503205051031437, -1.8788405078297796, 1.7591756444691027, -1.945625582551763, 2.040449814501133, 0.1855011749725301, -0.3366196107858477, -0.928057159120947, -0.7164509737502359, 1.553978489222371, 0.7272845639769056, 0.8600920160578549, -0.11772360713934306, 0.6596762762614067, -0.9590801194713641, 0.05987987847728368, 0.30361863504999964, 1.37863841323745, -0.3879709331491299], [-1.0392134246114455, 0.5156579610599321, -0.5317180384031858, -0.11705132449152394, 0.1285960944623431, -1.0350107105720303, -2.092404068987892, -2.3790030250185974, 0.6681941086849166, -0.6188300603846197, 0.7887952705955695, -1.1101229442843519, -0.06634140934390118, 1.129312418178297, 0.0093568068148136, 1.2687663342138407, -0.15596081818297447, 3.1373689842705965, 0.06363792869974287, -1.8851099061808243, 0.4904829738355282, 1.1776452718897352, 1.4342202244405837, 0.9520165299057275, 1.9302727837126255, -1.9584358734695122, 0.41471024823830027, -1.3797832580892835, 1.7148654835772148, -0.17893914990754528, -1.504866363203592, 0.6368092207046043], [2.515312978917579, -0.663552828064238, 0.4719333646347174, -0.710344731681678, -0.9107695489474279, 2.738474923122899, -0.2791687906652215, -0.05454125146703126, -0.3349923775441872, 0.4743851144966068, -0.8181007356982734, 1.012348129614533, -0.3003102579127729, -0.8804416685523844, -0.9826077007350124, -0.880106217217347, 0.052949158320464, 0.81129634451114, 0.12735466200466955, -1.0757420285993686, 0.6292280540368584, 0.29923336621212093, 0.1838932410842364, 0.41617602946089116, 0.4010395884270489, 0.777779184434193, -0.45070133276276103, 1.2908629736131956, 0.5864753573907449, -1.0967729767590086, -0.25269341323390876, -0.458856331999124]]@[[-1.6275121791537353, 1.7382092039173997, 0.041651583130134735, 2.7660712422171416, -1.49953078632585, 0.46952930422305617, 0.03973394978767299, -0.4477624599366471, -0.22312728974521384, 1.8224757086789003, 0.08846946431743077, 0.8816897979561266, -0.6598739655833751, 0.9250233317513957, -1.217807547410565, -1.160457423596974, 0.05824714235885099, -0.1484547438552402, -1.7189374330127491, 0.8641780166836152, -0.2528142735303888, -1.164454416534284, 1.765008773707251, -1.2915970241328942, -2.445664110592514, -0.061225630476765575, 0.5966760219594447, 1.097496541916496, 0.001639113616821182, 1.0173871549596927, 0.6319828828528364, 1.809234397922664], [0.2262181384758864, -1.4868763505545255, 0.8190372821463167, -1.2029011099911082, 2.412616898801898, 0.40425207755458215, -0.47807557010353213, -0.5990083923316049, -0.1298704243014346, -0.159783039374644, -0.2890640879926314, 2.878004934815015, 1.2023242067001836, -7.376186112642569e-05, 0.4258637502989829, -1.7654437609961204, -0.621588283290619, 1.3061051968214101, -0.5082152272802841, 0.6195903870821443, 0.7904244951175774, -1.3387885484908992, 1.15790664732561, -0.1047706478283877, 0.36337300800337075, 0.466070198948635, 0.14224923629907638, -0.1027000391699601, 0.26043752316600655, -1.5913160867584952, 1.1582950119578488, -1.8094661602243516], [-0.19959770747627278, -0.6719687935401433, 0.6508802206691713, -0.9250216178107995, -2.9931711831979895, -0.34142461106015864, 1.681288113786859, -2.236833963428528, -1.6890769503818959, 0.47475775049710556, 1.4189859137729453, 1.394067077623081, 0.13482361950071314, 0.14327563199480675, 1.509467582854256, -2.978098098297089, -1.6682337460058567, 0.44918962306551746, -0.7200621646032873, 1.643330084173284, 1.0160282047443483, -1.5276992568510495, 0.18223615790705047, -0.7499438550261066, 2.198545990747037, 2.196517832065082, 0.6185981638226392, 0.8795700656080564, -0.1790106793093672, 0.8020532824252952, -0.4140418872863069, 0.989563630164271], [-1.2118461443293786, 1.8939906102790067, -0.16377266029305868, 0.2918895810978698, -0.4769243627940187, 0.5506239795445365, 0.1022842667235184, -2.103369116942657, -0.7876215236620405, 0.37689022620286927, -0.4665048928541237, -0.004998869803976111, 0.0627700724127197, 0.7353470014003802, -2.09207130485087, 0.42794241952349377, 0.42862820889846476, -0.637164275904298, 1.290932420748794, 0.3120641229711324, -1.667174141057672, -2.828920067269486, 0.3111516063315601, 1.1451642692350994, 0.5071705800401429, 1.3796978548832726, -0.8646932332211815, 1.0130104261470405, 1.8993001896792359, 1.1310746002015621, 2.613709433706697, -0.429637752759439], [-1.1582242771109477, -0.7386959318581051, 0.7092382062419601, 2.251024840396115, 0.47910513995348347, 0.45629488155233333, 0.3990019730484663, -0.5095639236153855, -1.5863370091421205, -0.25835774421967794, -0.8245945762140884, 0.7743099802004647, -3.1535246264669694, 0.13718450015951425, -0.2982333869100703, -0.400640898029792, -0.85697806887652, 0.8094431521770589, -1.1927210828877153, -0.8296097211782842, 0.452585538355909, -0.09423678301118174, -0.5751959303169709, -1.2000250586537602, -1.2997020014814036, -1.7610496391334824, -0.17231697056448558, 0.682291571801205, -0.5357309104349401, 1.3284766657717653, 0.9522063586807772, -1.5841481552765977], [-1.5661547243190383, -0.691668653121567, 1.3026820007055817, -0.4545675076960108, -0.2021082132017764, -1.5714672871526767, 2.0647226966448073, 0.6408106408801197, 0.758478892316486, 0.47971528601281566, 2.838058901614725, -2.314146135399594, 1.0393398735682344, 0.2566186763340943, 3.017013648948673, -0.08229346699113403, 0.6668071823249851, -0.836231160808259, -0.6451335225575621, 0.18645073777738363, 0.05733143843645845, -0.8565318271854618, -0.03318354207543692, -0.3421852512966669, -0.4154002698756741, 0.23644610887336803, 1.5047365043340442, 0.6462791291411458, 1.481246189018779, 0.2143940730523325, 0.30648160194378704, 0.4504161120265293], [1.7181434470583243, 1.0464866539465387, 1.365811993436613, -1.2296680176388504, 0.86515721476273, 1.8791140623368756, 1.408819067454201, 0.8156768923200629, 1.0653549546812953, 2.6919603505057217, 0.034159569599722175, -0.2941959364145059, 1.4121026488143091, 0.16868190193146207, 2.33957860125757, -0.15039979319829616, 1.4465179214475716, 1.5883667619237631, 0.3567753306736414, 0.08932326601960766, 0.47213362067315423, 0.3128561269488398, -0.7601435598334758, -0.5968166825224233, -0.06133331199060047, 0.3654092525354745, 0.39490666354460935, 1.1141615894100771, 1.052827798602923, 0.46958877869528604, -1.645028944894758, 0.5466149438952095], [1.8929479658442163, 0.5245119513631952, -1.4706524721116894, 3.0058545416550224, 2.366866942443193, -0.530264213681487, -0.44485487279518987, -0.9952325330874021, -1.211522083392646, -0.8566731623949521, 0.9201298380057108, -0.8783387478758068, 1.1255639328367248, 0.9581535239122284, -0.043631622073548704, 0.764225508293837, -0.032060099405047116, 1.1485439292061974, -0.5342864882071142, -0.3234050274378911, -0.291930979463357, 2.209984635048597, 0.7196004617872576, -0.45820063056401134, -0.6527939180637992, -1.3816970031751914, -0.3076030438790567, -0.38523239898729156, -1.495021654592959, 0.6071326235703238, -0.4736315308747821, 1.1740273762330782], [-1.034797878637134, -0.4233339288040203, 0.6729520175379954, 1.2319633888330566, -2.320967761661466, -1.2592124856823625, -1.8063492967466863, 0.5314016346854681, -0.20264697012963426, -0.08127846651169202, -1.2026607603495734, -0.25579842947469994, -0.966306755447151, -0.5827513639941936, 2.542988225912848, -0.19487321713505845, -0.1870686366760844, -1.0669784532320965, -0.26577674023300046, 0.08461426181875609, 2.143917608657213, 0.2638383062692886, 1.368365214506186, -0.7191024678841472, -0.28373897277998267, 0.6278210976176313, -0.024759203915068244, 0.5994995457942185, -0.6101017095662353, -2.2478929467468656, 0.8955319720103304, -0.7036264497411768], [1.0676525343757697, -0.5630965804129391, 1.6646366208932557, -0.07142659923961762, 1.8149274793353916, -1.1814113682361775, 0.1562178702000757, -1.3303200086101483, 0.6689226959995052, 0.4030548742018932, -2.55658271890341, -1.0548372178967604, -1.0499090660026262, 1.4863905001018074, 1.116786246165232, 2.0662688419805657, -1.4528121721599785, -0.7612083476287341, -0.9856928584642308, 1.0193158876181379, 0.16625816923033018, -0.7590165058034003, -1.2727325052417529, 1.6250050830539509, 3.195509997891748, 0.8071064228359204, -0.10615484941803684, -0.25139470840589445, 0.21635929595432163, -0.05400107100276419, 1.4523665523864457, 0.005557944293962613], [-0.16263513900353357, 0.43856376325480123, 2.5801236612895098, 1.0658050285220824, -0.32165416011311754, -1.9219040352675905, 0.4217075877938895, 1.7206701857228512, 1.4020923254292659, -0.9010945611005681, 0.8170585776605093, 0.282221901940092, 1.7642375332124662, -4.39757894075965e-05, 0.679825576778413, 0.9256602076720423, 0.9653573647840815, -0.27979913548925583, 0.09801667223442842, 0.26670259656429063, 0.2935653891306627, -1.7442953271079886, 1.1884451066782984, -0.030755950121749476, 0.28626094921017836, -0.11543516242089352, 1.223850220919357, 0.2950132143420475, 0.020391641187244874, -0.38523721449643156, -0.6134339521722425, -0.4176789599216307], [1.5277668195158045, 0.08359239798268142, 0.5733413957094249, -0.5003535450944052, -1.0174656471424606, -0.8965628678076663, -0.07022169986271323, 2.3288413348626444, 0.9735056224150304, -0.6491806800347136, -1.8663485832350275, -0.20041123240287045, 1.042381656514648, -0.26064219239040565, 1.1294056735215212, 0.7109220074258981, 2.146122190467738, 1.8906581694170643, 1.16058737186083, 1.463797960046567, -0.1329350103678954, 0.7842090026720939, -0.5925344403740078, 1.3760288065194548, -0.2885736959610129, -0.02516429956823505, 0.49151930141875566, 0.18448044843368966, -0.27301968850094704, 0.6442591906210603, 2.3041058777161125, 0.6279477070711065], [-0.7185772224818319, 0.20602919429714103, 0.29233964594418604, -0.039709313069565176, -2.322176302256901, -1.1590304950523889, 0.3683822347502652, 0.5756797702867393, -0.4487572570150566, -0.12408313047701941, 1.2728686335456476, 0.7641396824788294, 0.3893527866418398, 1.81634362758755, 0.40729535694906366, -1.4275617433157355, -0.7078918075879446, -1.0860132927475308, -0.7310544240956541, 2.512880155160836, 0.07358624176386327, -0.8209214973694838, -1.8373814090663974, 0.6524995667871445, 2.3313082025807415, -1.665997648861311, -0.6912954887441091, 0.27245288519739075, -0.6295781652624138, -0.8396590236372472, 0.7399938297227904, 0.05969541090347753], [-0.215802116360585, 0.4718323748485558, -0.6563720089143176, 0.948866665592958, -3.186321933167963, 1.3556095186499664, 0.5852455221787725, -0.10184689695671911, 1.0965742916428025, -0.6835932166689537, 1.0893369101994217, -1.1051384277552903, 0.7106284612885456, -2.2277645689758643, 0.07641077037694044, -2.697137734862034, 1.5615092627386362, -1.9136235639178358, -0.43551260687768345, -0.7626190658500156, 1.772572809504823, 1.2004943599272253, 1.630526450600806, -0.7108188022383066, 0.34303993601587923, -0.42940295667861084, -0.5376703890265115, 0.5687154828775791, 2.300482472672475, -0.5355076905507992, 0.015154677119447416, -1.50908670775212], [0.4892216429318981, 0.6560317593163211, 0.6270873142427515, -0.3960850613362091, -2.1295630103634853, 3.311834001176709, -0.3179459871555063, 0.20506497256380524, -0.7999615147908221, 0.4495584385282938, -0.4568415266739748, -0.7239221973825303, -2.6267488083653245, 2.147938177074285, 0.8603487895235137, 0.5995305633784469, 1.9995455119924612, -0.6411567788945701, -0.9829226617338002, -0.9657475170822091, -0.7482711796843056, -0.8267774217312219, 0.9102750249142708, 0.375559386789547, -1.0902869606870853, -0.41957295374074405, 1.389268892722469, -0.8421448220944155, -0.18272332375694286, -1.1962415528235, 1.7750706952554802, -0.8896620186012523], [-1.203933998569065, -0.08224318591467664, 0.8615430796536032, -1.1713538596589803, 0.6896171533645394, 0.4487543478715056, 0.8494421481575024, -2.238028615658703, 1.5868788433793943, -0.9215295563989743, -0.3194024749191745, 0.5225532270219833, -0.16509744433372497, 1.1543448599618795, 0.7006587993268806, 0.7626008335190071, -0.24180280459947526, 1.4559705074792189, -1.1491746232018318, -2.9054820079537835, 1.3554178270364092, 0.90569783912903, -0.70237251341018, -0.9311166095199304, 2.0694244909829624, 1.7139633806934524, 0.19734407383795352, -0.5796327673036673, 0.36382157859937647, -1.4762422021441488, 3.6415444526264653, 0.19087276955088178], [0.9366549945141089, -0.19190540379819332, -1.1124756032001857, 0.4349260128811604, 0.9648525945935735, -1.974573068205664, 2.070183136160591, -0.6693892204416312, 0.6382293176545248, 0.546446809294075, 0.3793541893858631, 0.8469126693322195, -0.5283939277537908, 0.14559014769120926, 0.444475529444766, -0.1576722293447576, 0.3766428946993445, -0.6875179994211439, 1.778492709988644, -0.7713235223841987, -0.1317390109376572, 1.89080690803457, 1.3943172122181071, 1.0355069066491054, -2.03554278969655, -0.5154431357795008, -1.6354574734629828, 0.25928918442573157, -0.27403587110588656, -0.013246292808943431, 0.25517478376796693, -2.366214208349808], [-0.8468046418003028, -0.0686409237211402, 0.6185111117643343, 1.007685497389611, 1.080268397801802, -1.4938353959242312, 0.5926871517458386, -1.3652788173438144, 1.3642763466513697, -2.276659341333951, 0.037214515579129144, 0.7119916276026185, -0.025137650835792398, 0.9170960190055014, 0.8925437479697187, -1.9313289420150401, 2.547437187501272, 2.3369284102498127, -1.8443416720391557, 0.46877464465315016, -0.4054589506717745, 2.2853748330510943, 1.5495952648302378, -0.5622713438249318, -1.8422900327715668, -0.09266661515529517, 0.6545889017270753, 1.4038785352299592, 0.1615971850787635, -1.0893455802753542, -0.37867963121572606, -0.5123838242303647], [-0.13971598916925498, -1.6970440278559016, -0.20503367059936692, 2.2925595113026387, -2.3492178956067544, 0.5180872754506864, 1.602717481647229, 1.978377678603649, -0.3250693046105825, -1.9887646708175974, 1.9468610138419162, -1.6393456127375003, -0.7644782774293282, -0.434545394566652, -1.0222750490099008, -0.2859334416151888, -0.27273792660651386, -1.605928459195046, 1.334601770243395, 0.07015092291789032, -0.299561644136193, -0.1408176228026791, -0.4169188508547941, 0.24852132975285648, -0.9179974256405484, 0.43138344528098904, 0.2810113377298584, -0.2592413270322884, 0.5391329530126903, 1.064072512554162, -3.0492334336315627, 1.9600261739601739], [-1.6281762172466119, -1.5315339266213117, -0.890645022623953, 1.1062793579665502, -1.5912437118722123, 0.2572087612607399, -1.7829393107967622, 1.4389394512694889, 0.8368424351335912, 3.060840061411221, 0.8265992310474022, 0.1427491018993315, 0.7571007319675492, -0.5135533877437809, 0.3260643284312037, 0.684117812346083, -1.5415672220002552, 0.22747526806236962, 1.1247735091518865, -0.2728857764242426, -1.5667602949980255, -1.1631898325039713, -0.6666625057625745, 1.1507508634444201, 2.231438804882142, -1.0888584846016114, 0.3685844679777007, -0.2534989874877428, 1.0090470266711609, 0.41844489687972747, -0.20941086748632762, -1.3232290141735092], [1.489676095247048, -0.5263473357664222, 0.8112734444822162, 0.5622161693156333, 1.2057383392696808, 1.5360193780932305, 1.0997582425273071, -0.17335106174156645, -0.2790245354265868, 0.8375134808495901, 1.018306849413228, 1.0596035588871704, 1.388173996758759, 2.598464016727109, 1.358028168561825, 2.292896072387909, -0.39662264105196837, 0.16251590818669387, 0.6970321398687876, 2.541565071975585, 0.8936786989155854, -0.37778856465220095, -1.141052197025507, -0.7067276486000598, 0.1578843470316988, -1.7269496366879795, -1.9363603944529444, 0.7998993051717218, 2.0808568803838994, -0.8890695384772649, 1.5088517534731627, 0.9242340633079046], [-2.737091802745588, -0.5668108655712926, -0.040560988295166356, 0.2542677322396481, 0.6337535682237521, -1.1948637149812285, 1.5775675196959418, 0.045951710677214125, 2.543801248046884, -0.0873667881355869, 0.42301732187811936, -0.8914773375860661, -1.7906866415557434, -2.124685140087912, 0.4584488886255184, -1.3761367295647375, -0.3256221317420488, 0.23025271569389155, 1.5471821867466073, -0.6959402281313661, -0.23871390055978126, 1.0113556505559897, 0.28211144982729297, 1.2760281030712322, -3.119494773453959, -2.1872560160459176, -0.4721098533492076, -0.9317424036538718, -1.0387780240294904, 0.5027671606212962, 0.8956375842862857, 1.0860509673870662], [0.4583071208739184, 0.2906501391831761, 0.21526931932634397, -2.3885165482680266, 0.762682008199452, -0.8707080742843898, -0.5964038552145733, -0.07216831975923467, 0.7576077572722166, -0.9896053953418271, 2.471261285777868, -1.7268077922577552, -0.8656012537502306, -1.9455091630498056, -1.0440818710978756, -2.0294782997039493, -1.3756047435071057, 1.2922643708578159, 0.7241403616447173, 1.0610078261828548, 2.3894630232692786, 1.3816980006469435, -0.25878522835291795, -2.324328160682121, 1.2270852581670284, 1.5549649822859528, -0.1395569727380464, 1.3739865200044161, 0.8978899488396946, 0.7846597046596386, -1.236346431570313, 0.8967855244330677], [-1.768997114212072, -1.3281744253905607, -0.06230464983951408, 0.6651121608648847, -0.03418758224390444, -1.759792797929847, 2.120884187134534, -0.5817111599620164, 0.36715266839317273, 0.3538332819610452, -3.2820448180762227, -0.41469410869315837, -0.8795299641908986, -0.8474468883125452, -0.7055097563996121, -0.741617178550331, 0.02216309092976028, 0.4309701543668326, 2.109217660275124, -1.5395643995626784, 0.16651512057567508, -0.7298282872962276, 1.4603222444953805, 0.45317137840253163, -1.1602080578918517, 1.0752613732373866, -0.8265990012052323, 1.6777328300981753, -0.4442328235810506, -1.1992272909113935, 1.3623823707483376, -0.14204785076207602], [-0.3483662331044506, -0.0461693465796245, -0.44655602634846625, 2.6914873879200463, -2.5659857424810326, 0.5394623466995712, 0.6722274274519424, 0.8643717548970054, 1.3130490968110755, -0.4348461917586345, 0.4740370560619396, -0.14760392240430564, -1.6909995155483186, 0.24360704645626857, 0.10551324727251828, -0.7827367608777113, 0.07374410603093227, -0.1429488165315096, 3.285737649707708, 0.3700689832240949, 0.30567538131350747, -0.5976620483396974, -0.5092351802773563, 0.0031889754413639178, 1.3127628377260716, -0.618238819242729, -1.147108726444145, -0.7277578444904115, 0.0075129654729602586, -1.5886795441695016, 0.3398996842776102, 1.3120431606272476], [-1.1105746204086615, -0.060118781045614564, -0.2611304569252742, -1.1994576634833718, -1.2852148202761273, -0.9727041195396635, -1.7144418422174217, 0.814394626766346, 1.5525406398183383, 1.7256096004173513, 1.231439131062597, -0.40412727405301935, 0.8450972706938543, -0.34402552763663447, 0.34340322860749317, 1.0589491390828, -1.813986239355799, -0.27332322491264094, -1.530364495129951, -0.1265090354196781, 1.7323863989338402, 1.3930916506012585, -0.27400596612718897, 0.0446094414710337, -1.7541114568742129, 1.2255442558193665, 1.8039869784104405, 0.4343905785548175, -3.0358881648969063, -0.1642133802020038, -2.0808525208267885, -0.6386124341059146], [-2.495879037814292, -0.6571255138525361, -0.5648878143308365, 2.2531602523084038, -0.6912946023535027, -1.1130753248877476, 2.4654916616500473, 0.29614112188497793, -0.5116769119594115, -0.3352283664431894, 0.5727122293547107, 0.033774903485821475, -0.5374695075654701, -3.4193242278832505, 1.2504667134369787, -0.7585393366758543, -0.5113194617789671, -1.651516679984724, -1.7321666535392515, 0.2759714175136071, 0.36027631801056964, -1.907621314266284, -1.6992824490883924, -0.19684843333036026, 0.7237087391525271, 0.5895879990465132, 0.4153761901997357, 0.8936353620193042, 1.7603565563141081, -0.09597727014326053, 0.28256855672645576, -0.5595057720767855], [0.2811082420283332, -0.5750044018058938, -1.2830860980812193, -1.153321349336245, -2.501791031979527, 0.36095446590976354, 1.7972263404462296, 0.46002084990504, -0.10019207733027805, 0.22247101547903653, 0.46757329220334687, -0.3644647254246908, -0.4288999382195376, -1.3571534611858118, 1.069616191585792, -0.6658604037634751, 1.1319522779837388, -1.0876741172960154, -0.30648912485054114, 1.039885111843407, 2.9831637150046664, 0.8192431587615834, 0.660543518002178, -2.4835050881967455, -0.5258197042892282, -0.894397787680102, 0.04877486213743137, -2.399680096263404, -2.6476667578883233, 0.7814742830034439, 0.07816628181939449, 1.1145404198772526], [0.059844232634696876, -1.2755642834222511, 0.2515622614781957, 1.4852858811590646, -0.4161361265291865, -0.9036343904934463, -0.9509608968200247, -0.48184479254093193, -0.1784300386800383, -0.8810257463894199, 1.5072969164876473, -0.7744823398259244, -0.23898273813520873, 0.4436055151871301, -0.5512742047621071, -0.7550565941009245, 0.25361439218240556, -0.619616461321417, -1.2250634876728257, 0.23753487640877663, 0.6513109517706117, 1.3448943851979198, -0.12214736654249309, 0.7780455806330471, 1.0454361567259989, 1.3026688009950227, -0.4262306301193864, 0.6481187227201484, -0.30236481613460336, 2.6145267391920446, -2.2559651399730316, -0.6613975928420495], [3.1467942126204, 2.154205017343888, 2.6941715582279304, -0.2913452614125812, 0.14918373971134244, 0.6624064180513759, 0.1267171794413558, 0.6831596443761689, 2.143906340440353, -0.8661757191714881, -0.19204750813703783, 0.1801952765836552, -2.738294867176672, 2.7137369390604587, -0.45252950501390277, 0.5409289824207202, -0.02548685481172437, 0.4036553261549678, 0.3057971335869434, -2.4893238211791813, -3.2446115546878556, 0.44194443531529193, 1.7013737798374233, 2.0260523583377243, 1.4071892001166832, -0.017264919324261843, 1.9563615925542341, -1.3282739936998802, 1.6479095815810503, -0.31958861994749105, -0.2706601855187386, 1.6774332378502486], [-2.087042562312897, 1.655924313872277, -0.2892292166123064, 2.9392518721386485, 0.41173082209264955, 1.2321360205647067, 0.05682835300260508, 2.675072432624587, 0.21842341141862198, 1.2988700809168967, -0.7422912639333276, 0.2657034414327829, -1.388823382524797, -1.8348245735403919, -2.4169382912651547, -1.0399307269168827, 0.69912950006992, 1.7862587655691222, 2.0529619717892875, -0.10544372229160251, -1.7425292770953031, -0.38977375862221203, -1.7184573754898722, 1.4339774988325484, 0.1881411423428227, 0.7001067421110712, -1.1187143321657147, 1.4218577221764241, 0.9872256752558679, -1.2603616447617265, -1.0897479564730437, -1.74836247058654], [0.22744583005847904, 0.8715183618756446, 0.7785802721789052, 1.5029989891078281, 0.0354182968650468, -0.807106207949679, 1.7227202182126586, 2.2009489155489304, 0.4112771261076269, 0.4697603659268344, -0.1139510745474962, -0.5761559865167915, 0.06036771862822196, -0.6547884108627446, -1.1030214228119584, -2.4427043796250953, 0.1790931776463578, 0.0013900863167748967, -1.395596148053165, 1.9664932296344184, -1.1213191556652475, -1.1428489650415437, -0.3875500937797457, -1.265455347004229, 0.26329169415827836, 0.4025548428598581, -0.0487245637973385, -0.5177644500768733, -0.6016153992652563, 0.3156923139491668, -0.7296920967641009, -0.8631549469172002], [-0.1637365899380738, -0.2256933245426513, 0.16015524324521105, -0.462302701015798, 2.161978206932731, 0.06418602416150881, 1.3410876094699904, 0.4207821738511784, 0.4275164118565089, -0.32118101164526996, 1.7531763540653522, -1.0278668146599692, 1.4926380305683555, -0.8774431870238674, 0.7903647606685806, 1.0196024688098724, 0.8471033752975553, 1.9317603036443272, -0.587335676666598, -1.9481749349364923, -2.9047019661070084, -0.3820020886631992, -0.9648696461420433, -3.1649353048014732, -2.598955679873479, -0.8408119280068401, 0.08785468171730211, -0.950011188432631, -0.9759468999102661, -0.2735332710237141, -0.41718125019285596, 2.4340098185103383]]@[[-0.24006851502682927, -1.1284222565255324, -0.52483574553103, -0.6293994285753972, -1.7159101281078288, -0.7391413444246999, -0.2391721014473524, 0.33708620966256025, -1.4661310874490945, -1.260222606580586, 0.5387315687109073, 0.4006906237887098, 0.018904163962513786, -1.789981126940606, 0.2453604790439917, -0.5628304162583642], [0.12478005655292349, 0.4654172826617295, -0.3661246531556945, 1.4304107308560279, -1.269900354651803, 0.5221427617359851, -0.2566065287101574, 0.6761338183113904, 1.353456163030314, 3.069349070497989, 0.11205527950782976, -0.2509550625694688, 1.3330367696137297, -0.0049703809755678174, -2.388272531425717, -3.339995148052449], [-0.156022965989205, -0.26918135815610955, 0.5514123265041049, 0.7599229021331992, -1.386086209377412, 0.24399261777991926, -1.3205025880893122, 1.3926113833561202, 2.705519207500958, 0.4301215334838088, 3.2477905915986858, -0.9767933244848899, -1.6795038115822676, 0.11551410817689317, 1.3598384751300105, 1.4425782392475492], [0.8205017659485242, -0.1268268114094264, 0.22083891550804416, -2.9798324433017918, 0.4313812729839752, 1.9129175996301313, -1.9942919997502067, -0.3505528254946591, -0.576273972299678, -1.219219738968345, -0.39512458354317814, -0.6416627895927756, 0.2506497542765653, 0.5758391021598569, -0.854304851117019, 1.7124021763281712], [-1.1993168062950967, -0.34182207820302585, -0.6430859784725107, 0.9423919342355025, 0.5870204044441607, 1.2188977728392711, -0.9084645624976382, -2.192424867094436, -2.8683039209026755, 1.9950060156379499, -2.062663278474496, 2.3639848637457868, -0.22548039212667556, 0.9334683624303104, 1.1604029850216608, -0.7090358139657729], [0.5773197369025322, 0.49562514229502125, 1.7996137041353506, 0.6582221087493018, 0.3780736230098296, 0.5537635938917156, -1.109901158506813, 0.7484594503640574, -0.6275204443265274, -0.29191290463028924, 0.7302812029214406, 0.5513104106972694, 0.8422466404077574, 3.094729521139324, -1.1793645418190102, -0.2543659647838191], [2.098775032565944, -1.5140944499389408, -0.4493442682501684, -0.6991316458111452, -0.4016108243395264, -1.3108054134157554, -0.815704306415691, -0.8633924161407913, -1.2192813273239214, -0.8943858455108378, -0.17285759568821016, 0.6805773970895199, -1.4913272423712927, 0.22175696272244572, 0.17538270168347525, 1.4856421015488235], [1.9331845626103497, -0.6506983711349976, 0.684571861574848, 0.9056350067955949, 0.6952255923920867, -0.4683923170799628, -1.1359898979299023, -0.8730490141231698, -0.5316467697272746, 0.6260792472781489, -0.45984055738943463, 0.17046044315903797, -0.5974870100287577, 1.3644007663495359, -1.8144439779474577, -3.3306611403468716], [-1.5014979026164073, 0.5467469516477208, -1.432713406971426, -0.29149171083183667, 0.5265125839931168, -0.7314490868493427, 0.5562343245019921, 0.3658721747055472, 1.4583282828112794, 0.4117357714782094, -0.007857802803753408, 0.670752690979801, -1.4332359401456123, 0.07611899748059733, -0.8687462567628952, -0.2371176066706288], [0.5703326896607014, -1.6099887557457073, -0.33262646769152615, -0.38949770560304015, -1.0307097170393995, -2.8361954801029285, 2.2823743646803676, -0.44967433233262366, 1.1245097536046655, -1.552419245250194, 0.3136930310085764, 0.5073977288759324, 0.33559230685187513, 0.441220833589952, 1.2683523820802085, -0.5262197065485397], [-1.4514551104393945, -0.18452171575850035, 0.8906201974901111, -1.1514050202466963, -0.1627890284777135, -0.06239580841005933, 0.08116743064970632, -2.370380055940802, -1.1800037090605249, 1.1246478822949628, 1.2723740583061884, -0.6935117833353829, 0.5545339923742596, -1.9534750776824035, 2.5031145743650036, 1.6507521138397019], [0.3824253134553754, -1.187029352976436, -0.6613325458346746, -2.2143346674182176, 3.1122013234068797, -1.2000365917789761, -1.3146831685305238, 2.4666544263390175, -0.6488668885149689, -1.4461719728932894, 1.3249049621263909, -0.929439912037434, -0.7651081551031599, -0.6517245400326845, -0.5723577732250482, 0.292552991812398], [0.5870367615810705, 1.086140141790633, 0.5670646528960215, 1.0646481010958568, 0.3822897277267394, -1.7501017631344484, -1.304442767564282, 2.001889282419753, 0.7569043484627846, -2.4349808417006353, -0.14837189427959818, -0.49766605824614435, -0.12865204339032943, 2.1323604484879883, -0.668973179198413, 0.39291004955583736], [-0.40508614609138877, 0.3765774738604922, -0.7594229893523364, -0.1376979367929662, 0.13556515108289155, -1.066706314910355, 0.5836104845619913, -2.056324704693905, -0.17433475921161048, -1.4562532328796969, 1.8862134065655003, -0.6676907433664728, -1.397263386215557, -1.4885217609112222, 1.032277394535746, -3.0529075099325946], [-0.7453094938034913, -0.8642499120605651, -0.179249580111272, -0.9689898175335698, -0.5961758451876171, 1.4599546411882298, 1.1810401972020206, 0.5125797731559993, 1.798126255069488, 1.7924071778305335, -1.089557094925775, 0.4306710173927326, 0.6427953338635377, 0.8834448507314976, -1.0896431911691122, 0.4056708879612501], [0.33740497395186747, -0.2463583922973388, -0.4609291068393977, 0.9644210433339644, 0.47486808098484484, -1.972317325458862, -0.0021998661661292475, -0.6967379009401076, 0.33201653688231564, 0.5682160038479113, -0.2570682407832054, 1.0280751341844052, -2.3601495861211395, 0.8346833706876433, 0.4094373094478621, 0.5236079757378047], [1.1041607572569154, -0.9870202188885161, 2.787340567410963, 0.7716310734250827, 0.631500440958045, 1.28775907499994, -0.3091613461483421, -2.2545291220835537, -0.1941978595953303, 0.0496332657006108, 0.09105466777820853, 0.3853311034271848, 0.8804209041342228, 0.21647815751173027, -1.0274441370704062, 2.4776546053850828], [-0.23718104371157883, 0.2027293461126361, -1.9677151998838986, -1.3301399005423602, -1.8289196980242053, 1.4786526609423447, -1.2462519779327779, 2.9707691992006566, 0.9756322886265659, 1.21454376659516, -0.6681068696754116, -0.2754084817519512, 0.3768322072083958, 0.681471696671538, -0.8892515554765796, 1.1923505972810362], [-0.9018834664884188, -0.47021409006899323, 0.6931828774579479, -0.548268432215443, 0.24439112607936553, -0.9832637124184402, -0.7927677863577807, 0.04973696218992028, 2.3135817505847673, 0.6996303308913466, 2.5627991851783256, 0.9411134457423908, 0.8912353567523441, 0.3371968944867876, 0.8846817977452907, -0.7715686096188359], [-0.07842548600622602, -0.25956148866052664, 0.4821954485089636, 1.438165686827478, 1.1191960825140717, 0.6805237785842293, 0.3093150307787833, -2.496437843580243, -1.9910597979139995, 0.7111455614448556, -2.041077866539167, -0.8051523132996014, -0.6163662679710233, -1.690991133550948, 1.268309764366086, -1.203922516240265], [-0.5626427099497131, 0.9846031850911674, -2.282659642115537, -0.9515115044175029, -0.7851246104765597, 0.3198689503635971, 1.2952677970123998, -0.9165371067990793, 0.1178538371017592, 0.6376485110732047, 0.6606175300330478, -1.2761765542862569, 0.8449718143866445, 2.7547423684745533, 1.1507019881135871, 1.2209566835530303], [0.4627470831547396, 0.21679945317854168, -2.4929329037421697, -0.022125150841598894, 2.4097057616505397, 0.7479098646399964, 0.02626678447005688, -1.0586546900285516, 0.78678610488665, -0.5625125014158951, 0.4150975909990884, -0.29379247476383996, 2.836238343788496, -0.26529108091130166, -0.3455525446616309, 0.9488733872929942], [0.8567285294503486, -0.4379551394440126, -0.507707770550613, 2.042316155241385, 0.15254519473286365, 0.19440838445366712, -0.3224020623576989, -0.4405812422830826, -2.2240905937354323, -0.9520606731222591, 2.149481144924311, -2.8337362175348706, -0.7175299355194491, 1.075916492443667, -0.6452086542643619, -1.1676859233775758], [1.0368848395931638, 0.7849541985946403, 1.0863237900384628, -0.32357139874102525, -1.0880482716147857, 1.9450365007098158, -1.68685562185016, -1.0427758533666578, 0.5734960063284783, -0.5192957742294221, 0.5025951265362649, -0.24304531792762232, 0.3924518935218009, -0.5149306830251423, 1.577142245107193, 0.3426063291167139], [0.4003055700503699, 1.1072220149806906, 2.7032136102013284, -0.9559455583765188, -0.19255654484732798, 0.8496327606063864, 1.7568272413472927, -1.6229047266555174, 0.5407467273558713, -2.097026553530153, -0.3036569512202157, 0.8053858537417737, -0.19536877605977063, -0.7905720860470083, -0.40957967759791364, 0.6101114721538545], [0.14286866427434258, -0.3799048454607522, 0.1003129855523216, -0.5371104968076056, -0.6087957887090475, -0.1964050242999737, 0.40438632480496994, 0.21872346737517168, -1.2707073031002678, 0.8698513852370401, 1.684996367797685, 0.21834464092800923, 1.1100353116602673, -0.7760064230939321, 3.4223548101104555, 0.5238641348465184], [-0.1933424268749106, -0.9080312382609949, -2.4450357616244185, -0.18093955757825722, -1.6086846716947654, 2.87849071192609, 0.7705020071250634, 0.3021131453108251, -0.19633712090203517, 0.49307257659343207, 0.03868308727072234, -0.5016771011072535, -1.7110512658410015, -0.8148707866566438, 0.6899221664445954, 0.4335442467930759], [-0.5490153032762054, -1.3923537389400764, 0.3230326671175612, -1.9627847057403534, -1.176383846718259, 0.9583766690957363, -0.4037706076506436, 0.8044756589671266, -0.6458380194757788, 0.19309308752748006, 0.7988121304323329, -0.5938800158818734, -0.7883836234238953, -0.09404086870674695, 1.7368471006972335, -1.5509015720136097], [1.41087186052272, 0.313125817080772, -1.859293463533059, -1.0747433249876845, -0.05077998318054548, 2.1046482334964614, -0.6388560206436766, 1.8414553404114844, -0.5632751190520005, -0.5650690783810108, -0.18520019755437248, 1.405475635401197, -0.587375870576511, 1.1114401745978049, -0.48513145665332863, 0.12072314709779411], [-0.8975315400625766, 0.5823905413641757, 0.7060563356827142, -2.6101230124082315, 0.9823220226113523, -1.0412568015883057, 1.268891952430104, 0.07028181145166287, -1.0266940041332058, -0.2322660475427632, -1.1485774212697728, 1.4213618546420113, 0.5742762961448483, 1.567687064077509, 0.7000928678748434, -0.34465942867772464], [-0.11082160956796487, -1.8052131074324314, 1.4300682690449125, 0.29920227896820273, -1.0400477669494705, -1.36313174388215, -0.04626371795755688, 1.307164109820275, -2.473419987259607, 2.0340288138363523, 0.7168289540742879, -1.7262415679645486, 0.7004621484815371, -1.6245509338306958, -0.20715609142372537, -0.7783798137667906], [0.07084962422572037, 2.050549027824614, 0.282187258503044, 0.839093471827654, 2.2243161939819713, -1.2903169579932574, -0.05296752337280361, -2.0032514167169015, 1.2025822397236783, 1.5423662712802377, -1.3295972765774977, -1.2078287308809883, 1.4670124080815543, -1.7885319255119243, 0.23662451454656652, -1.4637971501420872], [1.590711109806205, -1.5286105336982223, 0.47179893659529015, 0.391111553091821, 0.8132695579936983, -1.2721234475261276, -0.6818775077081298, -0.37810792514802355, -1.9153515702525485, 0.017029929969778826, -0.3261808088776806, -0.14572660705092377, 1.5471739257341681, 0.9414611828422497, 0.9017829733587257, -1.7846780649818728]]@[[0.9353339126145325, 0.3510250296808919], [0.21098346100377974, -0.9742716305441095], [-1.518747980305237, -0.49356540010760847], [-0.7654491108295598, -0.18536048501122085], [2.2554748857179594, 1.07339443857702], [-0.23751676629934476, 1.4037473234383864], [0.3662844084221942, -2.5860642959031797], [1.5924574281689317, -0.5591941433156601], [-0.21985037813929753, 0.13479847388367214], [-0.15310058752308708, -0.7792843472603546], [0.928424423023728, 1.2503762080421181], [0.6716674751430312, 0.9912023985411904], [2.6772777486326143, -1.2601738673047183], [-0.6431916925311859, -0.21666851238767945], [-0.7517337454373725, 0.8792469289092548], [-0.39709920081292466, -0.8996514927403259], [1.3563644777744803, -0.1959268211551716]]
[[-1.0514837285558287, 0.8679005250486961, -2.0565999201442335, -2.074181069416768, 2.093514930473465, 0.441224900607166, -0.1801828339420838, -0.41888008525613596, -1.3134478564789893, -2.2306296799583447, -0.09275775137754738, -1.776067767551474, -0.43270586695967955, -0.7450822911534916, 0.3858019969382188, -0.989763646508618, 1.3191725849704672, -0.46364316682590145, 0.32083513437058314, 1.053166807804596, 2.381478631077359, -0.27816064204536, 1.1862359029012803, 0.6343005909767134, -1.1601870616404857, -0.13681818962095924, -0.8875138743215437, -0.1793494259473128, 0.040849022091967245, 0.7822260914259958, -1.5115084155150431, -1.0837941422124748], [-0.0849519007929353, -0.7783207523305049, -0.27228242211597353, 0.6916742174276204, 1.3065668447542873, 0.44057166708727485, 0.9133160349874475, -0.2237011823854194, -0.7217995954268779, 1.2906186959631523, -0.04751113934026438, 0.4652619625649, -0.3743438132762411, 1.9853256473322378, -0.8365605406237229, 0.17086298009792178, 1.8766132259704662, 1.5250575381993066, 1.3866345961447304, 0.39196984641425053, 0.07529898761594254, -1.3320356424202462, -1.682808601156163, 1.1580412484791347, -1.9383874270350367, 4.4008697861603885, -1.5654044992084302, -0.878690080760253, -2.3241878331394155, -1.0562802764391281, 1.836670016618767, -0.8743734531165661], [1.5048569596782848, 1.4727322940733347, 1.3428211802070602, 0.3700956641832579, -0.6381217550364284, -0.52699875247424, 1.1445921993187889, -0.028656764279866926, 3.45345899296919, -0.15321041721840242, -1.3843455176649073, 1.5891240238269766, -1.7329783301234236, 0.43038329736354947, -2.5713965379584756, -0.19874327833356703, 0.2043545476142198, 1.7277538576216804, -0.882760965331939, 1.1994865405420547, 0.4428987683586247, -1.3653365230834704, -1.0838486986054, 0.6725707429659197, 1.0961095503724467, -1.7286114651672622, 1.0400677090130412, 2.598123939884821, 0.9699494671533924, -0.4203618514440457, 1.37536527255565, 0.3497695295549693], [0.6394698510266374, -0.1679487355582303, -1.029324216288449, 0.3215303666623516, 1.5781286470893785, -1.0869242855742418, -1.301217188746706, -0.8495300159979614, -1.201788003403068, 0.3196231203593596, 0.34683016717931714, 0.9564513473055563, -1.1864836243568686, -0.5841417038082228, -1.9824633671686012, 0.5218301738424524, 1.080815212741133, -0.5341330314332999, -0.15061837836317987, -0.40649992407975816, 0.5581053688650603, 0.9912785377763477, -1.806951238882852, -2.709600282420154, 1.1705055100159456, 1.6288286968931003, -1.7018953632806797, 0.4958201177269538, 1.3827215493946565, 1.0861210953362872, 1.2105495341264632, 0.6737602521223416], [-0.6643259911020724, 0.9760252457266708, -1.3930496171995466, 1.7858255421197813, -0.7489119981093851, 0.622209734148205, -0.9831335642739526, 0.3856722834060579, 1.0059651809550243, -1.1395032879446934, -2.9486735459038376, 0.4644126234094719, 1.5159511865981314, 1.5199855995737717, 2.5130009296822595, 0.07090387887577483, -1.0594832889157324, -1.9082188233513435, -1.720406077057162, -0.37789522793246877, 0.8562198336898525, 2.4108805963497346, 0.7238645476672535, -0.4906247314367205, 1.8367730050166982, 0.44922435621114376, 1.3251950640449162, 0.7498139951423709, -1.7239043275473391, -1.8996459116332025, -1.3900098830475032, -0.3471776490960133], [-0.06613149312593085, -0.11148992124254367, 1.4401532703415447, -1.4032092162893057, -0.7985963493750564, -0.26589826545705375, -1.5081541546459385, 1.8750622276958446, -1.1449092859360934, 0.24115689418498837, 0.8616618822431585, 1.6988815607172152, 0.15729828514310418, -0.8393669064932004, -1.8195916705889819, 1.5798090790724149, -1.8603047537964803, 1.9544011164497848, 0.24856243838010633, -0.22895902329525947, -0.8879420737256534, -0.8206200722707155, 1.6919090187874222, 0.7861960711374548, 0.9228828812287335, -0.1284398587036797, 0.7000236820264176, -0.9595821068845508, 0.18704625375675593, 0.24619109156724972, 1.3411243744015455, -0.24221543403327975], [-0.914199706883104, 0.5936395098699772, -0.733875744540476, -0.2740484015178792, 0.20511310101967328, -1.1096973086097979, -2.2166102662299947, -2.4346102568521815, 0.6300147771520406, -0.7886507391042008, 0.8641612082827886, -1.2104454929122987, 0.09759866663594616, 1.0112575028314246, 0.0657808070189228, 1.1535646910180268, -0.2382922898432917, 3.068622673261321, 0.10182914335443055, -1.735837031017651, 0.33515106727446115, 1.1352869549918143, 1.4229354929911107, 0.8904060181031, 1.9403440555916163, -2.0105573590879295, 0.30294107502976025, -1.3114510792663938, 1.5265980750628787, -0.13691273359976064, -1.5058313364197538, 0.4964205525759882], [2.5414925500253864, -0.4598970287598353, 0.3170244355290046, -0.7239173296204247, -0.8540405558094368, 2.7036266415155707, -0.4294680768281124, -0.29431572715973064, -0.5783508688597784, 0.5349192352241527, -0.7583558517346658, 0.9762948291812303, -0.21596225119515275, -0.8392250933899755, -0.9385746470887135, -0.7972306017577019, -0.03016016916563742, 0.7776498572684448, 0.04568027320903672, -1.043339406188022, 0.5201906140643897, 0.34646541538794823, 0.2571663574829714, 0.4091159487599042, 0.436158445233562, 0.9017546588108691, -0.44431191550235516, 1.2078348123791058, 0.6595228675304028, -1.1201511624784564, -0.329571201183599, -0.3181749015820843]]@[[-1.5847980939484667, 1.9039690286926676, -0.04754612098241794, 2.616714619508248, -1.5141499385370114, 0.4390421368722628, -0.013169105125715508, -0.3035494288443731, -0.15478813930524446, 1.76285351453419, 0.05539376121530162, 0.8602823298685423, -0.6217915726689308, 1.0488208672033419, -1.239066631340985, -1.1288459426849982, 0.12324434737036456, -0.21022782996499195, -1.6917475503055897, 0.8356634082392658, -0.3175721929456669, -1.1901994063746002, 1.6944891355924634, -1.350555135658678, -2.3530911770503753, -0.1651574227408223, 0.6990765928619216, 1.0787580222244286, -0.026770734078288116, 0.9718352676626593, 0.4757043041788301, 1.7530500753738905], [0.26044009190405865, -1.3413953004216974, 0.8658449146148185, -1.412007164958091, 2.566862478836088, 0.4852817324112042, -0.5112718925868786, -0.6180446653226772, -0.20706294337809666, -0.0793319451002961, -0.18303968419463496, 2.7879735337308404, 1.2214624740166136, -0.08121828531391781, 0.3969556580603923, -1.6673081223170443, -0.7040964502283898, 1.2132767809019371, -0.44524860716206577, 0.6818883457480526, 0.7723020117415194, -1.2523782429375818, 1.1462948297404318, -0.06646740152059566, 0.3988140831045769, 0.4078699175694028, 0.2565927553377914, -0.013605831128509625, 0.28961657866048723, -1.4884558709704592, 1.283679855540483, -1.7469142369309705], [-0.3564372847045033, -0.8865363686420102, 0.7987293559417326, -0.9854018303264656, -2.81495298719562, -0.3027212088236613, 1.7969955491649903, -2.114081166718796, -1.856574607793316, 0.47438398964849027, 1.4109562964684055, 1.489605880736369, -0.08610903604171966, -0.003849991942289646, 1.60178039604577, -2.9060844688170477, -1.6799847755515995, 0.39854171795971494, -0.7156881465441257, 1.6266946410813, 1.061847804754931, -1.6367432395890533, 0.26677738945728, -0.6451647900927979, 2.263893437647901, 2.1491404181158185, 0.5640274300024111, 0.8385992097899155, -0.2687124525037671, 0.6997255191947577, -0.30639503470903257, 1.2483181321493004], [-1.1669109928421724, 1.8770342567040303, 0.04435922418194152, 0.3365482366969255, -0.4394123475781729, 0.5851553261726651, 0.09156245140209157, -2.145465641076522, -0.7581693315959779, 0.40343270633702677, -0.4758383339110055, 0.05438155664627828, -0.016349563046965374, 0.6582918724649048, -2.044455364422744, 0.3835993751338357, 0.3890261848080681, -0.6624198740176304, 1.3268477488437458, 0.37378623658042404, -1.6346773029628747, -2.7718772515509373, 0.2843366523736446, 1.2842241483638566, 0.5332314059964748, 1.4276670230977826, -0.8533027742526293, 0.946212176066582, 2.0230745127643237, 1.1410758754924362, 2.351956916063548, -0.5937958889230237], [-1.268681631310149, -0.6850032536197214, 0.6985784590809536, 2.403746434795724, 0.5083391362198422, 0.4942221543450859, 0.44856211219830555, -0.439529573408582, -1.4875913394602052, -0.3551342116833615, -0.796916639260488, 0.6118594663602861, -3.0725720748897065, 0.22853657594660334, -0.21869492852975558, -0.499075971769278, -1.0391717581932445, 0.8485049530549179, -1.1236223169886306, -0.7664859156552012, 0.3541343529884873, -0.12731262979617042, -0.5689031311779241, -1.2380296222586462, -1.2174618778992008, -1.5360270064809154, -0.2597993063359519, 0.673841972477923, -0.5472503924256502, 1.3650096088712602, 1.0235134193284783, -1.5218815667452492], [-1.4742677315590493, -0.7396459640748176, 1.2879173218920583, -0.2378065093331066, -0.0738403504485516, -1.4512850536217474, 1.879893653561769, 0.5102843723331046, 0.7288690365531473, 0.4927882287205239, 2.8509067597973545, -2.1346971028580564, 1.0053440844834969, 0.43771303295558583, 2.9386552453382677, 0.056548363416075595, 0.7695258586270736, -0.7561593402341441, -0.804490474601519, 0.28488407951584954, 0.1295373332429584, -0.8076242756322318, -0.24480779639545722, -0.40105951985644467, -0.39713569609420873, 0.1835005843034869, 1.4319565911670005, 0.42749454412729326, 1.4776411006164998, 0.20305204519782266, 0.14008885710476407, 0.5579410128952794], [1.706537198413177, 1.0702338082225957, 1.2670567857472455, -1.1540045313078677, 0.8148737139584092, 1.701284941273886, 1.4255674605034483, 0.98115612434453, 1.066659653659901, 2.559206415618255, 0.04908373400063468, -0.31388023682208754, 1.3985830738220082, 0.2660820328566927, 2.4413099354102665, -0.09125592753524199, 1.2246487347399218, 1.6641805619753485, 0.48521802293865285, 0.2268270127247098, 0.42287284114134654, 0.22256525234378421, -0.8450823250225785, -0.709647596448046, -0.01604378192552955, 0.5120497624232849, 0.43754087159059163, 1.1756524868843568, 1.1156978088357656, 0.36519815918054277, -1.578442906672489, 0.5071878192180818], [1.89464966443522, 0.5426272514303823, -1.4259285984281196, 2.973475157073766, 2.4870392012216307, -0.47098645573509235, -0.46477161980935877, -0.8549104005423698, -1.2074744306043017, -0.8577063974425446, 0.9263785432206754, -0.7435772085611809, 1.0289567980117698, 1.0180325508833377, -0.15128792518713624, 0.7581690511906292, 0.01570066063840482, 0.9916026847464404, -0.6060612125079498, -0.4332059036610876, -0.27964624404319727, 2.2826645798690377, 0.7802263890883607, -0.5769971350356372, -0.569075603065886, -1.3593700063688459, -0.3257368824280802, -0.4371324615105781, -1.4675402074625985, 0.6161640310770029, -0.46195181132321145, 1.0862806281945923], [-0.9356545012518692, -0.4186908908380862, 0.6423299701244471, 1.3893665960274177, -2.355590425028151, -1.3938319756272173, -1.8287918132981098, 0.5674708542761557, -0.32797210875400834, -0.16422058014815094, -1.1837828772035308, -0.3530805523899647, -0.875071419318598, -0.611996382405847, 2.322767337440338, -0.2952167672548154, -0.19534857237590667, -1.0505429449955046, -0.15794484050385, -0.08948203069704819, 1.8791455319011916, 0.24900281899647936, 1.365481802790063, -0.6530961625687898, -0.35875597478914584, 0.7270956654290827, -0.07841083710306743, 0.6282103811497817, -0.4248426359180729, -2.1828740955451593, 0.8695444970156831, -0.8983896060144528], [1.0063548300967504, -0.601175422471424, 1.7198622361356237, -0.06607801048532026, 1.6901242091678903, -1.3453344139548031, 0.15129363843684088, -1.2999638801879898, 0.5713760726208869, 0.4497252116007124, -2.544098385564957, -1.085274368507942, -1.0774940112977809, 1.611453687007932, 1.0329541603756345, 2.0971291371678755, -1.3999086814430761, -0.6166618273149461, -0.9130973590638842, 0.8040622511037135, 0.06856447504209338, -0.6982464673857898, -1.2990069476972161, 1.5052435027922175, 3.21378848813555, 0.8468693290360272, -0.08353882748702979, -0.3248714908724029, 0.22194276822632386, -0.12539489634970222, 1.335927197773887, -0.018430980022107128], [-0.21587538999365474, 0.4974757557037285, 2.6945055719311366, 1.120056491254174, -0.3339014857904349, -2.024885916932564, 0.27313569482902667, 1.6574722754501605, 1.3788118503744948, -1.048320966846815, 0.8251155939702509, 0.37047202266803675, 1.5602981795122919, -0.028321038177003183, 0.7909263227988822, 0.8484781543460955, 1.060566637012708, -0.37854756206715423, 0.23285006128866434, 0.37692673769840046, 0.021523424909508933, -1.6322722590223515, 1.0428636137841403, -0.16943447384165738, 0.3123115954748363, -0.06272537470226831, 1.272387397640873, 0.0964447540938186, 0.08698413441088247, -0.24342608256453346, -0.6693082859818987, -0.3580282718346464], [1.5218979478946144, 0.1064990399615428, 0.6182466379189063, -0.230203069965832, -1.060398973833127, -0.7538574395929608, -0.06346978710715356, 2.4113082474658736, 0.8844041488315533, -0.7197782336081614, -1.7400964700403283, -0.04537070433856405, 0.9168582474349287, -0.287738213489661, 1.101752873495842, 0.757021883959395, 2.1215068273434947, 1.8808164996964523, 1.0869927946901727, 1.3125172550522248, -0.18611894347947894, 0.7514003476519013, -0.6002104671193634, 1.4888804977621617, -0.3593038470352258, -0.07246619098908078, 0.6765407033234986, 0.3087012369760458, -0.19506113054774088, 0.6372899925532293, 2.3161312916022, 0.6343680105505415], [-0.6253530732193979, 0.15094741774791107, 0.2331078737404505, -0.07533064140385672, -2.1909863029943177, -1.217584976438141, 0.3584143802186072, 0.5557995502453696, -0.3379085064049883, -0.08217081447088585, 1.2080479959859287, 0.7484494394002339, 0.3742785807901582, 1.7152755567299807, 0.35249873035459506, -1.576087221414164, -0.6140934423331662, -1.1591916846275747, -0.9040649561299742, 2.5909797257329976, 0.10061357879090943, -0.9388151103794525, -1.9046879855302723, 0.7053961273901745, 2.5226858683858753, -1.5959789515747147, -0.6260878893254695, 0.3148239457687597, -0.6330403775743448, -0.7673234807276166, 0.617513489945951, -0.028482654009063833], [-0.39353048770850646, 0.6582500632430895, -0.6004949077175268, 0.9329144408922531, -3.171039445753725, 1.2200336484632808, 0.42058215571991286, -0.08298592188686178, 1.1023295271111895, -0.6786949647629592, 1.231668500820709, -0.9790692505428292, 0.5688964264778954, -2.0871173157254725, 0.15042080014155068, -2.4693433092417156, 1.5842606387711755, -1.7857158359168697, -0.27810529825592867, -0.7312265984398281, 1.8580037223455914, 1.0416815478697645, 1.643777044767405, -0.7849172023797459, 0.459054613262534, -0.5010153542858261, -0.5355010114981072, 0.5755349709595193, 2.2552332100258483, -0.4965092909212571, -0.1145930095233008, -1.4927106014759493], [0.42805488097979166, 0.6205472224233706, 0.8167647238639496, -0.42502359472216455, -2.1927196587098314, 3.1720219626152644, -0.3859614977863736, 0.28568568932558336, -0.7805338742709617, 0.5573446134732862, -0.4843271255632707, -0.5864989310065749, -2.627151367117077, 2.23351807828201, 1.0436785442592642, 0.5789874868947732, 1.9451741213254354, -0.567357618546577, -1.1230200033202038, -0.8537245983322668, -0.7860982567632911, -0.8823928452073544, 0.8627208172513438, 0.41100976392505967, -1.1604988732838, -0.4135113821274798, 1.4041556621176505, -0.8025129478258213, -0.1632381220946365, -1.4697328503600549, 1.7126395808597665, -0.8815288931581569], [-1.2196267299230872, -0.10791031614148434, 0.7807768641739533, -1.3548434435180368, 0.6803297843448461, 0.4163630180216435, 0.814625243054227, -2.15802698730713, 1.6473635833248756, -0.866322864683465, -0.47075227398129826, 0.5245649231520949, -0.22684002789069543, 1.2375376144487282, 0.7290021307959009, 0.7322458390904115, -0.2559033364766126, 1.408767639405053, -0.9565459199658077, -2.859154691043789, 1.277232877741194, 0.8713526084016084, -0.6535450987420818, -0.9225391858211415, 2.079827630517456, 1.7871782922357882, 0.20388984843397995, -0.5939833258033522, 0.39852576139402396, -1.6477566623590736, 3.7621614270577233, 0.2793541922655238], [0.914740311692385, -0.29439802119692265, -0.8407853143068406, 0.5624164789096857, 0.999582492434973, -1.959274111492439, 2.065273128723786, -0.486450203958867, 0.5328380475570087, 0.5386828685009997, 0.2591307345081269, 0.961884859368349, -0.31223981058005185, 0.21926938530761697, 0.278462098085492, -0.2975316519576967, 0.3844492120467421, -0.7274671381339008, 1.653967285245741, -0.7165350309720138, -0.11372957871082313, 1.775282026664815, 1.3246059890960944, 0.9496984460752043, -2.0236156249389134, -0.5545025299403599, -1.5383656639022905, 0.3893194118402335, -0.2735195840426532, -0.012960297734766257, 0.24462083971862109, -2.3769877510121535], [-0.9875670701250292, -0.25414306962368605, 0.9177189982914783, 0.8760113516510833, 1.2395422183482832, -1.5557081589935526, 0.7133095011601231, -1.357388936603541, 1.3245698689925007, -2.4131965261555064, 0.013301872127856398, 0.6506224655059307, 0.03864872828674707, 1.0206628897250825, 0.71871336076544, -1.8016283632630212, 2.676226836577408, 2.2891076209987786, -1.8728731997243366, 0.4846644018374121, -0.6400543718005226, 2.2866194500439514, 1.59555439930822, -0.702706528815055, -1.9099085378192553, -0.23363761402273564, 0.7624182616113425, 1.4102545073618797, 0.19990806089477986, -0.9934723019828033, -0.4484166870216107, -0.43019021251403616], [-0.23526421975876463, -1.9103371236580253, -0.22053613799498104, 2.3118744843105654, -2.476335592554541, 0.5110907009166973, 1.5844047464662498, 1.9668800770328851, -0.19011294743769638, -2.14179662236785, 1.8374415347581965, -1.5358020637157908, -0.8136276699996601, -0.49385581280818147, -1.0684315196018725, -0.2870417977031655, -0.24933172664995343, -1.6489816240497577, 1.28696219961438, -0.015509793783159295, -0.4336779676093217, -0.19391770519193377, -0.4015302323363252, 0.25760926472539736, -0.8161921961659218, 0.4290705648355802, 0.19326216505596588, -0.0733881130498413, 0.5574608381436339, 1.1440760541313342, -3.045675901364386, 1.9068323543532535], [-1.6059740008485999, -1.3836735521421586, -0.8907844630435153, 1.010478706784154, -1.6033162750132774, 0.23035399325201775, -1.7084331695696247, 1.312718973794223, 0.7946833880402661, 3.136919707313927, 0.8065956166377983, 0.2756109685174089, 0.6077576770360588, -0.4750945695864458, 0.09801156491943072, 0.7176103204256409, -1.457886022780143, 0.4465528403511546, 1.16254978945736, -0.22182991567282223, -1.4529053281895201, -1.041373546222925, -0.654258016064508, 1.0776332108719275, 2.2809274251729117, -1.0543718741367452, 0.3939334267409009, -0.37016298908294887, 1.0974013531759583, 0.3889699670915338, -0.31434754667108333, -1.276690712819001], [1.5592985871969578, -0.5690373021947964, 0.6829530605848297, 0.5781098464260925, 1.3275166068635742, 1.6527788868962443, 1.0276653064692831, -0.2882471931958676, -0.4409216947309845, 0.7113879478532767, 1.1039524266055645, 1.0308654967039628, 1.454093695162065, 2.7495488593315884, 1.3662544077662238, 2.057296865732436, -0.3007852359975854, 0.17033209033065166, 0.6349261294283888, 2.496633307862, 0.7121083312047152, -0.5595331754277271, -1.2487237448288124, -0.8160496347955439, 0.22976307735966778, -1.6809992539347047, -1.8998490325980386, 0.88868325398787, 2.2558918386515527, -1.0460616221945034, 1.563134233378589, 1.0179132843443341], [-2.65007145247952, -0.7312770560794313, 0.06170742826458395, 0.259422551361229, 0.5047869788342343, -1.1142631995635819, 1.520622508378864, 0.07441157816056757, 2.5453507694557036, -0.23413862698321924, 0.2910451708924546, -0.8752455343516532, -1.9217298177439373, -2.1077515621963574, 0.47280494869064643, -1.3581833204439968, -0.3423696209361633, 0.14278858885137669, 1.52969355586042, -0.6678675708459283, -0.18761924317046658, 0.9435008161835601, 0.4581272395097092, 1.4535233074259015, -3.0011298320102373, -2.1132148497197196, -0.46142752743176274, -0.8501493810607497, -1.0445359284420046, 0.6408057914104774, 0.9498247516457967, 1.2918090823036579], [0.3979234923298913, 0.16891243297233746, 0.031480796645718304, -2.3344691727736837, 0.8483338446190567, -0.7715557178450022, -0.46142385789818685, -0.1847158976670371, 0.8223005459288751, -1.035598345495119, 2.2559819368381193, -1.8294550448643931, -0.8450111945977593, -2.0333810990707653, -0.9975449808658098, -1.9374055504090901, -1.3940132931852456, 1.2300980197616556, 0.7622430972073806, 1.1410626295431097, 2.48590962404949, 1.203352332518971, -0.04382907652451101, -2.362532784260032, 1.0953310997848076, 1.5426295326591384, -0.06186282970217291, 1.3969328017948879, 0.8274060946967654, 0.8652590312785012, -1.2265220614357324, 0.7659616521283203], [-1.707732668970663, -1.2791641421987456, 0.04792717336788053, 0.7725893992749796, 0.02790076162859529, -1.8421096665531684, 2.26988042410301, -0.540577922929412, 0.29169320505734986, 0.3807030522436864, -3.3395519575562242, -0.3674232755255143, -0.7557892476819935, -0.9236909135658832, -0.5894542783967279, -0.6452542660773037, -0.07406810783317495, 0.44885369567009237, 1.9688038327657509, -1.5769865917311192, 0.3422897697953209, -0.5542463055932642, 1.4339490473861338, 0.3374789226202572, -1.0552678906569102, 1.046303251168433, -0.8197066408231906, 1.6414370863290422, -0.4333670463456358, -1.3404519335897715, 1.2805947574080538, -0.1333718723997811], [-0.33156272406870263, -0.16281388627085372, -0.5723232519157655, 2.667611052285947, -2.431520559829444, 0.3769148917722751, 0.5948417419670654, 0.7222765839403376, 1.3972636822892497, -0.5314605857835545, 0.3409244666611252, -0.1845566087357138, -1.6037463305703061, 0.35269378392136347, 0.1149196419003129, -0.8284855856951818, 0.09355533988271025, -0.05272871570445631, 3.2093843790904253, 0.43431462604660226, 0.18086240148929206, -0.6147342262747704, -0.5158379138642506, -0.019970901266039703, 1.4214550059824385, -0.6825111557505605, -1.1492650557994744, -0.7036996775522784, 0.0025101703091564703, -1.6772025451503132, 0.4279043200198811, 1.1619341758812156], [-1.241931638069242, -0.15176993514587334, -0.2869147747081022, -1.195559169571071, -1.4383561585361795, -1.1298665096072906, -1.8132251015215146, 0.8157291221730092, 1.6731461941844377, 1.729948512739934, 1.2923589429881952, -0.3592437746793664, 0.7864351187620682, -0.38314522399380396, 0.3205407989672822, 0.7485899083600766, -1.8779919904565208, -0.3851764965912612, -1.5765826710463098, -0.08693603701724902, 1.7890220368758294, 1.5178948781325357, -0.3001808065441291, 0.06793146144644568, -1.7102872661489217, 1.281187133448182, 1.7875296165026309, 0.4437672327046936, -2.968218516340284, -0.30135947642320327, -2.197509148886296, -0.5086062413879915], [-2.466121994623571, -0.6890305427732005, -0.2995072766060766, 2.2343813370464902, -0.7333186348212679, -1.0242706070963834, 2.3985592886967733, 0.3136269028629093, -0.6281996169360431, -0.3898984741737366, 0.6113219574665449, 0.09765504160510771, -0.31521834445148206, -3.3894074485690306, 1.0905745241869378, -0.6847881890493385, -0.38949601791049293, -1.64075052380483, -1.8018400902256402, 0.2566497875976038, 0.46673484627352646, -1.8179133210304117, -1.539377374474125, -0.2939927599934192, 0.7087683740016026, 0.5276568005256969, 0.32639417069527926, 0.779837259081239, 1.7732258446630942, -0.04277424410490559, 0.347173554744837, -0.5429427238897283], [0.04386649042136717, -0.5816031788619458, -1.2087805327545529, -1.2003645920481523, -2.555490288513197, 0.5268515402406716, 1.5952580423796052, 0.4799408851932954, -0.004502921559716128, 0.0321960228577775, 0.5303203661436281, -0.3612708474253824, -0.31168103535336766, -1.6152047773612457, 1.0492240641533412, -0.6169570066447205, 1.2572642084767, -1.1000917536764276, -0.33234934103997427, 1.0554411639865475, 2.9088868111893706, 1.0239437416705548, 0.5935142238512195, -2.5397327464796486, -0.48322949004681004, -0.9032626484707947, -0.007438385371605835, -2.4935027032284225, -2.566001965011813, 0.8588585533786275, 0.1834180321180711, 1.0646966014803996], [0.07260182773670365, -1.1465429357988095, 0.26493924596636326, 1.5905347443384752, -0.35807369030663605, -1.0002381830863074, -0.982158957759908, -0.46836963922747954, -0.021808656215266065, -0.694269304285265, 1.2907301862688507, -0.8435063812979491, -0.2603043603694255, 0.5816393729350224, -0.7826119363473799, -0.599127226894466, 0.20728679330237434, -0.6287190345610917, -1.3427706526570717, 0.37682394154156457, 0.6093191063896329, 1.3739445000751656, -0.08838826522441307, 0.7015037582529591, 1.232754223733022, 1.2183450989757865, -0.5568534381178104, 0.7315394474503598, -0.32509602333694415, 2.634653688474099, -2.330251364451574, -0.6713246007116742], [3.261058586206174, 2.1343498099658174, 2.694133800968207, -0.48534262589946475, 0.057750199446962774, 0.6399399618624829, 0.07107225352975213, 0.6279211649264371, 2.0516055660994708, -0.8242633604880285, -0.27037780007164003, 0.28733558522687586, -2.8316552632433316, 2.701951405684988, -0.4049495074767456, 0.6228416506540386, -0.1290184354768406, 0.27740148400256565, 0.4176591802207993, -2.486480885443148, -3.4124949749617164, 0.5110355630462698, 1.5182952502064682, 2.008141726615598, 1.3755420201343829, 0.018062147637603804, 1.956704412378987, -1.3326590727345589, 1.5504971422662595, -0.43716773739267056, -0.28236830060219015, 1.7380146016887015], [-2.148289984777615, 1.4496652522373001, -0.1994753840624999, 2.9468959279292775, 0.44995797320879216, 1.1199991914904273, 0.11642543474501285, 2.5790491656942267, 0.3445193153861732, 1.4131882408843914, -0.7852801598939254, 0.5187116963649452, -1.4708479421061986, -1.7665858850364131, -2.3235306992499614, -0.9570646863078766, 0.7805718303576062, 1.7047027849188787, 2.102104198926004, -0.027258897756873283, -1.9492709814802223, -0.3717392141494166, -1.8339033231143125, 1.5062679807208308, 0.07779586351284104, 0.9523343190754732, -1.0178998222303166, 1.4462730749814172, 0.9945113020753106, -1.4096980549024325, -0.9648607735406478, -1.7311366675061508], [0.24943383842518382, 0.7464194834766775, 0.901411011974892, 1.4978606446246496, -0.08779815171861555, -0.8107154718107484, 1.7680200850825678, 1.9822212084741042, 0.4276365155969436, 0.5514462180682713, -0.2497452571730729, -0.4611684164089934, 0.11917250471643602, -0.6014012006406115, -1.276832784981632, -2.3697655265398727, 0.06396420401865033, 0.03404106784996355, -1.2819323227073398, 2.062879299137493, -1.1765985819240297, -1.092701230026899, -0.3145043536993162, -1.3398165808648843, 0.13044547585971733, 0.3496820414316108, -0.15589108478645558, -0.433727891262454, -0.6383739656272469, 0.2802821505908497, -0.8184854778147339, -0.637727720240453], [-0.15460078999867097, -0.11936112469139983, 0.09347901218565492, -0.41727084000661724, 2.3178908230758437, 0.2253578631229189, 1.3625563086487413, 0.42889474004520334, 0.3602895229004029, -0.19704300920664175, 1.7709573154912321, -0.9520832999662587, 1.611183793692883, -0.8015448361000564, 0.9654907413067125, 1.0016459305065915, 0.90877061273768, 2.019556292381324, -0.4377870499161042, -1.9371361472579087, -2.8234595451763584, -0.47581217253122526, -1.0512547908656966, -3.1775087059602125, -2.535863954201838, -0.8403672621782511, 0.18697543142792636, -0.9742610261587961, -1.0715893999780481, -0.37212765562191474, -0.24866454658222054, 2.3701132756867698]]@[[-0.03816918335328792, -1.0125947397877586, -0.5579227094561029, -0.5589979826199988, -1.8653062780113503, -0.5490635896788041, -0.24444312371742113, 0.2030694321431131, -1.3918299250070314, -1.3185389818742175, 0.5114527546556078, 0.2841365751301984, 0.03363666467878043, -1.759217085694619, 0.2952433855307617, -0.5879305105815716], [0.23970325179096436, 0.47732736249886315, -0.3860201455279276, 1.478128228574288, -1.211159544789712, 0.5735262712735052, -0.26050186688972987, 0.8329492578594436, 1.3804331413215465, 3.092596536554694, 0.13834939613399835, -0.21023458095374858, 1.2656375018233665, 0.049754314338427225, -2.295314193704268, -3.331021861180508], [-0.13196859652121412, -0.22208822053622343, 0.43651333793779235, 0.8697192491251473, -1.4078284487886001, 0.12267435690047904, -1.138852669686223, 1.370628251719087, 2.850627111356797, 0.4864529694396661, 3.3587320421643003, -0.8894593663455097, -1.80406526539861, 0.042205990092888494, 1.4428314011266272, 1.4011083363736097], [0.8720073226396489, -0.16780443326016872, -0.010319977874815402, -3.01020459926272, 0.31455800521299704, 1.8838460836671924, -1.7982080911468625, -0.2947210133247457, -0.5401778326157043, -1.1426549420590872, -0.22735790628276287, -0.7241103703742123, 0.1264943922799887, 0.6535783122067556, -0.8671229925733687, 1.7223044846916389], [-1.0362318923422185, -0.2586873968102693, -0.6855896390316761, 0.8615912541268868, 0.5591451565666681, 1.2707179919014853, -0.8923894789308987, -2.348439547223988, -2.994116372289177, 1.9684169961643405, -2.265772224461343, 2.2838191767900518, -0.4323850409328305, 0.8404898393771294, 1.2209621744295154, -0.6015508397572699], [0.7639204852260866, 0.43077963862545043, 1.8713757799444628, 0.741635406899878, 0.1558573685361089, 0.44401394732493493, -1.107205501596842, 0.678379581955817, -0.7566774480792711, -0.4074698241377115, 0.707941566595635, 0.6363577590108243, 0.9327013020431676, 3.2452531109876506, -1.2232511049293722, -0.3632488532475054], [2.1959262837561457, -1.4381691785875366, -0.23724980530634987, -0.9308548776847794, -0.4222114832481982, -1.3633942693548045, -0.9529198701968038, -0.8069040924555596, -1.2571501932598816, -0.9540111558762548, -0.12497168850553358, 0.6771599959700543, -1.3811797139965454, 0.29071928944212455, 0.09550300848272564, 1.629680859218037], [1.8367145777938556, -0.5262047710307107, 0.39638542771609386, 0.7506321789359494, 0.7207155720433605, -0.2248525795730113, -1.063469410637183, -0.8615109493965365, -0.4577703741989163, 0.4401708073839054, -0.45508843062279297, 0.15496599001754013, -0.7568589438856338, 1.3871584330765412, -1.788976300357286, -3.256891921518407], [-1.5411800272317657, 0.8247857493758738, -1.3483112180233414, -0.2345185109856198, 0.55915577662639, -0.7480025843380906, 0.43980341776685145, 0.5030234882476314, 1.4945359366922397, 0.33589525327200875, 0.11162064728257629, 0.5650601067171802, -1.6154447392196734, 0.0575818153745089, -0.8646846369955421, -0.13140711629868707], [0.49122874822769624, -1.7219153738756452, -0.25289708576280145, -0.557858413837498, -0.964057345073842, -2.715722006760555, 2.189962367842791, -0.4417342714562319, 1.0490609029497082, -1.335033879795457, 0.3360175369672228, 0.4768241590734823, 0.4036416398645373, 0.5981669848023163, 1.0674660577378594, -0.5372127390543353], [-1.4672634477890643, -0.1710809671803204, 1.0024513838675242, -0.9131602458721558, -0.17045953575323675, -0.14871606686735633, 0.199943118656079, -2.452111366030125, -1.1136285720145933, 1.1105001835137092, 1.1649518751932706, -0.5759987932433029, 0.6189171582169826, -1.938162646787184, 2.408267786057699, 1.5503018863834883], [0.412858246330139, -1.05419361423131, -0.6283983009164144, -1.9628493976247554, 3.0624801439855363, -1.2427016786513119, -1.2120467134019988, 2.5181448404600424, -0.737242728143104, -1.540356136364318, 1.36996626383507, -0.9001637568585814, -0.7457468076971112, -0.7680582797918106, -0.6227394177649757, 0.3507930424443694], [0.582729874954197, 0.978368309192347, 0.31187756350772605, 0.9323074185677338, 0.5034033056964397, -1.5137007305060308, -1.3057071675392207, 1.9905906943585483, 0.7457168719904437, -2.4130296703962277, -0.043155673788845744, -0.568359885324425, -0.09486446575531106, 2.0827954851701462, -0.6495485214021546, 0.2946167726019099], [-0.43339838132727715, 0.4146012633888346, -0.810782463760363, 0.13326147905747943, 0.12794067119342142, -1.1870870483092775, 0.6097395075002865, -2.1862705052428577, -0.0525528818353502, -1.545056953800708, 1.7322802174852332, -0.7749020298811135, -1.4425020178051464, -1.4884855653824152, 1.0149707601609326, -3.035468340944352], [-0.7610667760291561, -0.8528182582099907, -0.1471515040440829, -0.9738103938193972, -0.7244740046153829, 1.4258786651834965, 1.3310773617663245, 0.5216244209805033, 1.779100812318863, 1.8149779924824114, -0.9996744495315693, 0.24470551844953503, 0.5843709419744878, 0.8838690947629204, -1.1259267976602754, 0.36247947425463445], [0.4386447420002446, -0.16563733319140644, -0.35810249430855795, 0.9985836238192678, 0.4831743334177107, -2.03716706212669, 0.024962423687672868, -0.6617285880331725, 0.21396632298366536, 0.6415006669301054, -0.23451743579511714, 1.2051010434495661, -2.3194918145940147, 0.6726810923146321, 0.39099865090441516, 0.4840079435757452], [1.0381303785193357, -0.9912634319761764, 2.763612337229416, 0.7237180746095376, 0.6233279633690996, 1.1789506763109374, -0.23685875874983836, -2.2002958221293434, -0.15559244109916748, 0.1943313062634449, 0.015017357575324575, 0.41133375747179257, 0.8586982228210627, 0.30091043975525567, -1.1368901596642373, 2.580319398994249], [-0.18290664406236037, -0.006930856702172028, -1.978933473449715, -1.322339933166919, -1.7760497431950157, 1.4656356069940695, -1.167369257978711, 2.9722276093920033, 0.9259168418208702, 1.1266185292908706, -0.6890047747585712, -0.2972062647679543, 0.3279591940384006, 0.6274045390613644, -0.9740599219860212, 1.2855340628611662], [-0.9408346100632077, -0.3110342825093193, 0.7338094394939749, -0.5228148328093474, 0.04098981563918282, -0.9344242765456818, -0.8573360275660586, -0.04274077424866476, 2.362979804959997, 0.5264760697250521, 2.509469531337079, 1.0489355777746896, 0.8740735082900303, 0.43345142783907625, 0.8783948572345202, -0.8417294747042074], [-0.07403889486034113, -0.2850345260940476, 0.4452013755475011, 1.512485031352984, 0.9696674762437189, 0.6414573261741364, 0.2913227861059281, -2.3739718836029082, -1.9865091230704737, 0.5010896277369756, -2.002033627702518, -0.9064846939088641, -0.6358745843977175, -1.566018300849869, 1.1013372212614287, -1.2379883289379965], [-0.587989651333664, 0.8872428198841323, -2.3119984755303724, -1.0508443870493074, -0.8024147079614453, 0.28429309708345574, 1.345497773988163, -0.8328320831097276, 0.07375964423704284, 0.4598775245333761, 0.6163832224406507, -1.287232823121384, 0.7202977348523881, 2.8349153742559907, 1.1045466514390867, 1.300039879930616], [0.5009005236409433, 0.2660873929897881, -2.6782997017116608, -0.0498089177698445, 2.471396722076414, 0.668994186833926, 0.04957324243793064, -1.0770845604174812, 0.7107967029682145, -0.48714792238551125, 0.33425472996248395, -0.262578347282058, 2.9953439907480157, -0.004555390063580786, -0.21284202932102458, 0.9707702229991882], [0.9904808698891245, -0.307037846041173, -0.48305105215343874, 1.9871458433152314, 0.1405084501059591, 0.11730333676683694, -0.24395426857853852, -0.621114427560957, -2.1746333534634648, -0.9160383681415261, 2.199102704358478, -2.794804370720381, -0.5275334899625119, 1.0357299388411583, -0.6377364257495957, -1.1740930082695331], [0.8704118639721629, 0.6710266247496733, 1.1749299774354305, -0.35957249150497567, -1.1221277051933267, 1.8833763041380531, -1.6115682332227728, -0.9569126889713817, 0.5363717647291767, -0.609714086788974, 0.6091130453435282, -0.07743824311492342, 0.37534468965505263, -0.6225528719081261, 1.4706744452850293, 0.23326688366962417], [0.37712136122676815, 0.9580565356006898, 2.743860732082944, -0.9406481883930078, -0.2418795363926405, 0.932775020386714, 1.7495904622625285, -1.607691621958384, 0.42415259340250644, -1.9928070531458397, -0.21584923715219406, 0.8948849591895763, -0.29393426744568085, -0.8160985454358362, -0.5202133071020487, 0.5365156321847956], [0.12438026900655001, -0.33081501532206964, 0.005764121003616569, -0.48659311092630675, -0.6602535849906651, -0.16466686204241757, 0.44241129679406627, 0.10955454745714731, -1.2158012252315251, 0.7488265807393456, 1.5811069024500877, 0.18993092713178272, 1.0513131520592665, -0.8902135742993493, 3.6257949939424092, 0.5158541288505385], [-0.24364479146691376, -1.0350329466325077, -2.3937012110467615, -0.2365645799733042, -1.7834639876724692, 2.92324305144, 0.8867278632438174, 0.07748749849630435, -0.01697401436800087, 0.5150352582438128, -0.04290881096141319, -0.6563116108224386, -1.758690654184952, -0.726393670781119, 0.7643212846330183, 0.41916225995126], [-0.632054314333712, -1.5465891355792314, 0.1625403847718233, -1.8309911256817384, -1.0381766489480941, 1.0316237936565862, -0.4113749926528015, 0.7419722733187026, -0.6748002141935195, 0.24041307326504605, 0.9596549429552823, -0.6928216407575803, -0.7474805036991788, -0.07399040050718238, 1.932848026871882, -1.5517647104046792], [1.3050312759689804, 0.28476646390805604, -1.777385024489662, -1.0264268841698816, -0.11265847920213863, 2.129128145691401, -0.5551568435089272, 1.8230605664730848, -0.7174581058535072, -0.416581549650166, -0.20228809747610182, 1.4220335075970043, -0.7207290492470542, 1.010986858550618, -0.3738734980126097, 0.0604735961756033], [-0.7442425775272611, 0.6084129414869452, 0.670686411933646, -2.607799034706247, 1.1083050265598948, -1.0015985941110799, 1.3283739863721198, 0.0804816511807914, -1.1483317657129497, -0.10807610334574308, -1.2409636787637237, 1.3780678674174538, 0.43578440723663153, 1.4324346270541506, 0.6592577019572659, -0.27585407216690183], [-0.09122916217414165, -1.894529897817879, 1.3397219873885544, 0.4473516251458917, -1.0464459057190652, -1.4025989386230695, -0.0362804687936125, 1.2777381099092593, -2.667048425285555, 1.9025828296842955, 0.6882848386591707, -1.6857823920452486, 0.7177469058172737, -1.6123163961680511, -0.21818528673579166, -0.7376264104668341], [-0.011076243168061217, 2.1730067571903064, 0.06317811747915007, 0.8961338276493339, 2.2366162435136125, -1.2824614470064761, -0.1420830661359863, -1.9576915201121554, 1.126151277386454, 1.4104785360952174, -1.5072333806133846, -1.3626041068617232, 1.452835002606512, -1.827397394933147, 0.19297256912672603, -1.5191618490621863], [1.5332702182994353, -1.5962578248210404, 0.3624095859473442, 0.20513340609266195, 0.7726347508282758, -1.2114225445188727, -0.7174027963948421, -0.5973226313393875, -1.9457200235381293, 0.12509945941185852, -0.4196355183396852, -0.2749123839817316, 1.5530014665199776, 1.148036814161957, 0.9206100716645761, -1.7043537925293797]]@[[0.8404348435599205, 0.4455516454272135], [0.1611377769414835, -0.7713897082421429], [-1.7131671403818947, -0.4979008543714268], [-0.8198632206600842, -0.3162883604061252], [2.219375950088992, 0.8882013818023723], [-0.21945720670479374, 1.3724030221666235], [0.34432232548257, -2.3858103605388674], [1.5997287632302013, -0.6752127071253963], [-0.15515694159996118, 0.05567250998253723], [-0.28634087012180953, -0.6635863085834548], [0.7319288272511982, 1.2645916212394457], [0.6569098108109719, 0.8209522416064554], [2.590065123208255, -1.3477757124152905], [-0.7993979952729995, -0.28507662135503653], [-0.8431435330937416, 0.8348623239581706], [-0.2786067537115813, -1.0599593534328797], [1.45895953387575, -0.28080445442639457]]